%YAML:1.0
my_svm: !!opencv-ml-svm
   svm_type: NU_SVC
   kernel: { type:LINEAR }
   nu: 4.0000000000000002e-001
   term_criteria: { epsilon:2.2204460492503131e-016, iterations:100 }
   var_all: 3780
   var_count: 3780
   class_count: 2
   class_labels: !!opencv-matrix
      rows: 1
      cols: 2
      dt: i
      data: [ 0, 1 ]
   sv_total: 1
   support_vectors:
      - [ 1.42584089e-002, 1.63618624e-002, 9.93955228e-003,
          1.34203387e-002, 6.88020326e-003, -1.90784247e-003,
          -1.93855073e-003, -2.47621853e-002, -2.76237112e-002,
          2.25651520e-003, 2.27707122e-002, 1.24720577e-002,
          1.00002736e-002, 6.87012542e-003, -1.61561673e-003,
          -2.23888154e-003, -1.57879684e-002, -2.04551816e-002,
          6.04385184e-003, 1.31703448e-002, 4.16168384e-003,
          1.23277148e-002, 1.02942064e-002, 5.42929221e-004,
          -4.38930281e-003, -1.83243845e-002, -2.91260872e-002,
          -9.47375875e-003, 1.10898782e-002, 1.33738685e-002,
          1.59531981e-002, 9.35990177e-003, 5.57178725e-003,
          1.19677070e-003, -1.02688568e-002, -2.42260080e-002,
          2.31629498e-002, 8.78732372e-003, 3.78616061e-003,
          1.70606002e-003, -6.26410882e-004, -3.99813056e-003,
          -8.53614789e-003, -2.29935236e-002, -1.51131032e-002,
          3.06535978e-002, 9.65429284e-003, 2.79938150e-003,
          -1.11291592e-003, -9.29021835e-003, -1.35391988e-002,
          -2.09970661e-002, -3.56467515e-002, -1.85473859e-002,
          2.34927563e-003, 3.16493865e-003, 8.00124370e-003,
          4.45053633e-003, -1.12398819e-003, 1.27799553e-003,
          3.58925026e-004, -7.37958960e-003, -1.38573982e-002,
          2.75847688e-002, 1.03103081e-002, -7.27694621e-003,
          -1.01761101e-002, -1.78480539e-002, -1.15653137e-002,
          -6.48140954e-003, -1.04228212e-002, -7.49819446e-003,
          2.01422330e-002, 1.39243435e-002, 4.16478282e-003,
          -2.10262858e-003, -8.73468164e-003, -1.79089811e-002,
          -2.89234370e-002, -3.14190798e-002, -1.46718798e-002,
          2.12129597e-002, 1.28837898e-002, -1.63265888e-003,
          -8.01060535e-003, -3.85371223e-003, -1.67359784e-002,
          -3.17475311e-002, -3.93864401e-002, -6.05113897e-003,
          4.56304513e-002, 1.09955268e-002, -1.88640412e-002,
          -1.82187092e-002, -1.71121340e-002, -1.76600721e-002,
          -1.15734721e-002, -2.40369234e-003, 2.17687394e-002,
          4.54787351e-002, 6.33644592e-003, -1.77240837e-002,
          -1.78688131e-002, -1.41184162e-002, -1.45666525e-002,
          -4.63636918e-003, -1.23017502e-003, 3.75134647e-002,
          2.70571169e-002, 1.33826109e-002, 4.66776983e-004,
          -7.32371630e-003, -1.27959624e-002, -1.33537063e-002,
          -2.05353312e-002, -3.89216878e-002, -1.57768223e-002,
          2.98728161e-002, 3.17521319e-002, 1.63713880e-002,
          -1.32386549e-003, -2.43079606e-002, -3.36720236e-002,
          -2.63351481e-002, -4.19505052e-002, -2.31022425e-002,
          3.52337100e-002, 5.40108979e-003, 4.86918632e-003,
          1.89530686e-003, -1.47601580e-002, -8.81100725e-003,
          -3.40246572e-003, -1.14814676e-002, 1.82500873e-002,
          1.24205165e-002, 4.02588351e-003, 2.46745627e-002,
          2.33863983e-002, -1.58470478e-002, -2.93781552e-002,
          -1.85567681e-002, -1.54880621e-002, 8.66544724e-004,
          3.34635004e-002, 3.42802592e-002, 1.66511517e-002,
          -5.17268316e-004, -1.34089189e-002, -1.86709445e-002,
          -1.81179438e-002, -3.14789601e-002, -1.66958012e-002,
          3.37249413e-002, 3.31983082e-002, 1.24379015e-002,
          1.74249371e-003, 2.34371587e-003, -1.86615891e-003,
          -2.33380478e-002, -4.80614752e-002, -1.91994924e-002,
          3.21665895e-003, 1.72179751e-002, 2.67153289e-002,
          1.86694060e-002, -2.90745404e-003, -1.37337856e-002,
          -1.14746103e-002, -1.51178027e-002, -1.39547826e-003,
          -3.19015770e-003, 2.44779922e-002, 4.07935195e-002,
          2.43026484e-002, 1.20125273e-002, -4.94823651e-003,
          -2.38810536e-002, -3.88416424e-002, -3.01386900e-002,
          4.51015048e-002, 3.15753780e-002, 1.55799733e-002,
          1.28729651e-002, 1.14661362e-002, 4.04840597e-004,
          -2.27505490e-002, -5.97177632e-002, -1.20170880e-002,
          3.72560769e-002, 2.41541844e-002, 1.95134263e-002,
          1.33036291e-002, 7.68260844e-003, -5.89188014e-004,
          -1.66326165e-002, -4.75074239e-002, -9.44471359e-003,
          -3.60173220e-003, 3.09481602e-002, 3.66646610e-002,
          2.71017216e-002, 1.19146565e-002, -4.88958973e-003,
          -1.58716030e-002, -2.88933981e-002, -3.08579896e-002,
          1.79207372e-003, 2.50233021e-002, 3.18605304e-002,
          2.22392678e-002, 9.45964828e-003, 1.01187453e-003,
          -1.20823039e-002, -2.40417328e-002, -3.90881002e-002,
          2.68198103e-002, 2.29366347e-002, 1.61951650e-002,
          8.85211304e-003, 1.01654558e-002, 9.25052073e-003,
          -3.26628238e-003, -4.29575667e-002, -2.16613486e-002,
          1.74137689e-002, 3.14783528e-002, 1.18787494e-002,
          7.88404979e-003, 1.39653422e-002, 1.34463077e-002,
          1.40028191e-003, -3.57027389e-002, -2.46898141e-002,
          4.08339128e-003, 2.52751913e-002, 2.51722038e-002,
          1.67649295e-002, 1.32443262e-002, 4.23707440e-003,
          -2.25998536e-002, -4.39239405e-002, -3.63533869e-002,
          1.97146535e-002, 4.21260446e-002, 1.72363874e-002,
          6.12980733e-003, 8.95493571e-003, 1.00686159e-002,
          -1.80103984e-002, -4.89380844e-002, -3.06074172e-002,
          1.18573010e-002, 3.36513296e-002, 1.37581583e-002,
          7.36836996e-003, 1.34975165e-002, 3.45755182e-003,
          -1.13997860e-002, -2.91729979e-002, -1.88051593e-002,
          2.18210816e-002, 3.04251388e-002, 1.43470895e-002,
          2.02126103e-003, 1.91869936e-003, -8.52361612e-004,
          -1.09622711e-002, -2.35573594e-002, -6.67587295e-003,
          2.44341474e-002, 3.70879360e-002, 9.49435309e-003,
          2.37724371e-003, 7.02374754e-003, 6.57525891e-003,
          -2.29501948e-002, -5.66257574e-002, -2.10405793e-002,
          2.57124901e-002, 1.98552664e-002, 1.13714319e-002,
          5.37747052e-003, 6.67879032e-003, -1.24069484e-004,
          -2.55807955e-002, -4.40383218e-002, -8.51246063e-003,
          2.77309176e-002, 2.86021959e-002, 1.25758108e-002,
          1.12292811e-003, 7.10618077e-003, -1.75144617e-003,
          -6.70863735e-003, -2.05116291e-002, -8.81683268e-003,
          2.33784541e-002, 8.16233177e-003, 4.97817108e-003,
          5.04195981e-004, 1.52670909e-002, -4.09742212e-003,
          -2.71631568e-003, -1.51319215e-002, -9.68179386e-003,
          2.29626074e-002, 1.56433377e-002, 1.44050894e-002,
          4.94962791e-003, 7.55539909e-003, -1.93023868e-003,
          -2.31802054e-002, -3.46515216e-002, -3.67290061e-003,
          2.26067584e-002, 3.41949495e-003, 1.50464522e-002,
          1.16692774e-003, 6.54845126e-003, -8.66899034e-004,
          -1.85542216e-003, -2.44780537e-002, 1.87473779e-004,
          6.66372757e-003, -1.27978297e-002, 8.88334005e-004,
          -8.95866426e-004, 9.57375113e-003, -3.37227713e-003,
          1.53020374e-003, -9.72350221e-003, -1.73078608e-002,
          6.25983393e-003, -2.40006996e-003, 1.41316105e-003,
          1.41573651e-003, 6.00221753e-003, -1.61498331e-003,
          6.31405413e-003, -1.11159328e-002, -2.15811711e-002,
          1.98672526e-002, 3.31451325e-003, 1.48485508e-002,
          2.94596422e-003, 1.25831254e-002, 3.05803237e-003,
          3.69689567e-003, -2.49629617e-002, -1.15688378e-002,
          4.40753438e-002, 3.50573473e-002, 1.76079273e-002,
          2.18605809e-003, 7.02836970e-003, 2.91057024e-003,
          -4.51020477e-003, -2.79588141e-002, -3.50855873e-004,
          -2.33606622e-003, 2.98221502e-003, 4.42944607e-003,
          2.77567888e-003, 4.49969014e-003, 1.00716681e-003,
          5.69191901e-003, -1.99498087e-002, -2.01184954e-002,
          -5.30750630e-003, 2.42794910e-003, 6.83115004e-003,
          9.70545982e-004, 2.17541074e-003, 2.08068945e-004,
          6.28996408e-003, -1.16420249e-002, -8.49125255e-003,
          4.77167144e-002, 3.19193117e-002, 1.38288401e-002,
          1.69810711e-003, 6.97822357e-003, -4.46118473e-004,
          -6.59058196e-003, -4.51170504e-002, -3.09471437e-003,
          4.11389545e-002, 1.71275306e-002, 7.33114546e-003,
          -1.29651977e-003, 5.49353706e-003, -4.37937304e-003,
          -4.16559447e-003, -2.71918848e-002, 2.14683125e-003,
          -3.71352886e-003, 9.42627061e-003, 8.22776556e-003,
          4.14788444e-003, 3.08391708e-003, 2.33003963e-003,
          4.74313647e-003, -4.57435613e-003, -2.36945711e-002,
          -5.05296467e-003, 1.73081569e-002, 2.02383697e-002,
          1.02441795e-002, 9.54055693e-003, 6.47102995e-003,
          9.69692506e-003, 7.65317120e-003, -2.09155120e-002,
          1.46999089e-002, 6.06256258e-003, 1.70717062e-003,
          3.82383959e-003, 7.64480932e-003, 3.07585811e-003,
          5.71705587e-003, -6.97221141e-003, -3.82530247e-003,
          -4.84480429e-003, 4.81937965e-003, 9.64882039e-003,
          1.01665249e-002, 1.02493661e-002, 1.03194602e-002,
          1.48523999e-002, -4.55989596e-003, -1.62870400e-002,
          -1.36801973e-002, 1.08709028e-002, 1.27149532e-002,
          6.16675662e-003, 7.14197941e-003, 4.44996357e-003,
          1.06267212e-002, 1.23758493e-002, -1.22177908e-002,
          -1.10710692e-002, 1.14343576e-002, 1.41345439e-002,
          2.83111306e-003, 1.11493627e-002, 2.46676314e-003,
          1.21028097e-002, 8.81790649e-003, -1.24818403e-002,
          -9.31572821e-003, 3.08274128e-003, 6.69853576e-003,
          4.90703620e-003, 1.17618800e-003, 6.20613340e-003,
          7.48081598e-003, -3.54992086e-003, -8.26124288e-003,
          3.11394408e-003, 8.92480556e-003, 1.10936211e-002,
          4.29558428e-003, 7.60065904e-003, 4.81476216e-003,
          6.16423180e-003, 2.25272262e-003, 7.59248016e-003,
          1.12284746e-004, 2.10522227e-002, 1.74933225e-002,
          3.40116001e-003, 1.12760169e-002, 6.90645596e-004,
          3.24462610e-003, -6.63971249e-003, -1.39460973e-002,
          1.48508772e-002, 2.46445984e-002, 1.82831492e-002,
          3.04248254e-003, 4.73410124e-003, 1.51213317e-003,
          -1.04635181e-002, -2.80865934e-002, -2.79664174e-002,
          7.00137438e-003, 1.83665976e-002, 1.24938581e-002,
          3.03432671e-003, 3.17497086e-003, 2.38006446e-003,
          5.43901464e-003, 5.21409558e-003, 4.92420699e-003,
          2.42121946e-002, 3.15263271e-002, 1.23024192e-002,
          -6.77133357e-005, -9.01946519e-003, 3.13921046e-004,
          -4.94567119e-003, -1.30126560e-002, -1.39894327e-002,
          6.20359322e-003, 1.61831193e-002, 8.19113012e-003,
          -1.93903502e-003, 4.84906649e-003, 1.25709525e-003,
          -5.07559115e-003, -1.92520395e-002, -2.22301465e-002,
          3.51054128e-003, 2.67947856e-002, 9.24679637e-003,
          -2.52631051e-003, 5.79383923e-003, 3.19390325e-004,
          2.53258599e-003, -1.36803454e-002, -2.15885621e-002,
          2.70521026e-002, 2.79524066e-002, 6.11368008e-003,
          -2.80347466e-003, 2.05233926e-003, -1.00129435e-003,
          -2.45395396e-003, -9.34124365e-003, -2.40767114e-002,
          2.70884819e-002, 4.07417044e-002, 9.21724923e-003,
          -1.29053695e-003, 5.74647915e-003, -2.01624865e-003,
          -3.21054063e-003, -7.16227992e-003, -1.90349314e-002,
          1.36897787e-002, 2.83649694e-002, 1.14308139e-002,
          5.50768105e-003, 4.11030138e-003, 4.86255763e-003,
          -4.03117063e-003, -8.37059040e-003, -1.72383115e-002,
          -1.65273398e-002, 1.89603027e-002, 8.85681063e-003,
          7.23599922e-003, 4.76180995e-003, 4.91550239e-003,
          -2.03289650e-003, -4.09658113e-003, -1.32960165e-002,
          1.12633742e-002, 3.76515128e-002, 1.21731116e-002,
          1.27314450e-003, 3.40402313e-003, 9.43085458e-003,
          -2.75144936e-003, -2.71013658e-003, -7.62347970e-003,
          -4.70566237e-003, 2.70390268e-002, 1.26520637e-002,
          -7.41613191e-003, 6.31232234e-003, -1.92054533e-004,
          -1.19456956e-002, -2.11083442e-002, -2.62301061e-002,
          -1.52927730e-002, 3.56035633e-003, 9.75575484e-003,
          5.63987158e-003, 5.81348315e-003, 1.49647985e-003,
          4.15477343e-003, 3.69512616e-003, -1.39542595e-002,
          -2.48428760e-003, 1.41590424e-002, 7.01778510e-004,
          -1.47713553e-002, -1.35965347e-002, -1.00869723e-002,
          1.96815375e-003, 8.25260393e-003, -5.97337727e-003,
          6.31248718e-003, 1.83826592e-002, 1.12692583e-002,
          -1.67190679e-003, 8.87639914e-003, -4.07393370e-003,
          -1.45117883e-002, -2.43688431e-002, -2.37647928e-002,
          6.20381022e-003, 1.90023445e-002, 1.52428532e-002,
          -5.69391937e-004, -6.34532701e-003, -1.15934089e-002,
          -5.44817187e-003, -6.89547276e-003, -7.23899622e-003,
          1.59574877e-002, 1.34126479e-002, -1.14854788e-002,
          -2.30610911e-002, -2.13703979e-002, -1.48990788e-002,
          -8.50763544e-003, -1.32929841e-002, -1.61871850e-003,
          3.92332822e-002, 2.49993429e-002, -6.71066158e-003,
          -1.05288262e-002, -1.32368896e-002, -1.12031428e-002,
          -9.75788757e-003, -2.53726915e-002, -1.74810668e-003,
          8.12235009e-003, 2.65104938e-002, 1.40418354e-002,
          -4.91543952e-003, -1.78638883e-002, -1.77887306e-002,
          -1.29586384e-002, -2.30392851e-002, -7.66162807e-003,
          1.70758944e-002, 3.23524997e-002, 1.88329741e-002,
          1.39930844e-002, 3.80297191e-003, -9.85438842e-003,
          -2.12965962e-002, -3.64499390e-002, -1.43754026e-002,
          1.76250301e-002, 7.00339722e-003, 9.78501327e-003,
          3.49755818e-003, -1.81238558e-002, -7.38915848e-003,
          -1.00273192e-002, -1.97687298e-002, -2.79269856e-003,
          -1.67750102e-002, -1.00299455e-002, 8.95856693e-003,
          2.09837519e-002, -2.37123063e-003, -1.32366382e-002,
          -2.08777171e-002, -2.50616632e-002, -1.01563605e-002,
          -1.17282711e-004, 1.02311401e-002, 1.01618133e-002,
          1.09706325e-002, 2.75595300e-003, -2.07550591e-003,
          -9.97832604e-003, -2.70638224e-002, -2.27087121e-002,
          -1.61089972e-002, -3.78508843e-003, 4.03311150e-003,
          1.34456009e-002, 1.25367567e-003, 3.05748917e-003,
          -6.00025151e-003, -2.09991001e-002, -3.95466667e-003,
          -1.97343510e-002, -8.13741982e-003, 1.41891185e-002,
          1.75186638e-002, 7.27732480e-003, -7.53239542e-003,
          -2.12466028e-002, -2.39194073e-002, -1.41625595e-003,
          -2.86771022e-002, -3.26169864e-003, 2.28166711e-002,
          1.75227281e-002, 5.55876829e-003, -4.98628709e-003,
          -2.28107702e-002, -2.21667830e-002, -3.25277671e-002,
          4.95486101e-003, -5.36044873e-003, 2.86985072e-003,
          1.00855026e-002, 4.66760620e-003, -1.87409134e-003,
          -1.88071355e-002, -1.16225062e-002, 2.62923595e-002,
          -7.37751194e-004, 5.27800899e-003, 9.88387968e-003,
          5.00875339e-003, -4.93993610e-003, -9.83961206e-003,
          -1.84915718e-002, 3.65946954e-003, 1.08693764e-002,
          -4.18513902e-002, 6.66334294e-003, 2.83266529e-002,
          2.01547425e-002, 7.05357734e-003, -8.25768220e-005,
          1.91559418e-004, -1.69064535e-003, -3.98817696e-002,
          -3.03443801e-002, 4.57599480e-003, 2.26693451e-002,
          1.09897908e-002, -1.36047904e-003, -6.24545570e-003,
          2.41818884e-003, -1.10629397e-002, -4.47072238e-002,
          -4.45774291e-003, 1.80882309e-002, 1.22898100e-002,
          8.93601403e-003, -1.32960873e-003, -7.34641496e-003,
          2.68124742e-003, 9.65471845e-003, -1.20743327e-002,
          2.27003032e-003, 2.46953256e-002, 2.11374238e-002,
          1.38309989e-002, 5.43978240e-004, -1.81153300e-003,
          1.31689589e-002, -1.71132770e-003, -2.52971519e-002,
          -1.00116469e-002, 1.18243340e-002, 2.50794925e-002,
          5.74797718e-003, 2.53657799e-005, -7.75138335e-003,
          -7.57092750e-003, -2.16254182e-002, -3.22817825e-002,
          4.27534804e-004, 1.89915281e-002, 3.05340928e-003,
          -8.83665308e-003, -3.92528344e-003, -3.81017220e-003,
          -1.96223650e-002, -3.93913202e-002, -2.11646855e-002,
          1.54510327e-002, 2.24618018e-002, 2.08864175e-002,
          6.24143565e-003, -4.84363502e-003, -1.05021857e-002,
          1.44820064e-002, 2.61313841e-003, -4.63283528e-003,
          1.29621681e-002, 8.87643732e-003, -3.76297347e-003,
          -1.56666022e-002, -6.08391315e-003, -1.43221868e-002,
          2.27689001e-004, 6.09768508e-003, 5.91944577e-003,
          1.93522312e-002, 9.98507906e-003, -1.35851065e-002,
          -1.60244554e-002, -9.28766560e-003, -1.88575231e-003,
          -2.65344195e-002, -4.59427014e-002, -2.36191950e-003,
          2.80478261e-002, 6.50069583e-003, -1.00967456e-002,
          -5.33549255e-003, -6.89369952e-003, -8.82802624e-003,
          -3.72926593e-002, -4.40283827e-002, 1.27133420e-002,
          1.63387004e-002, 5.69901662e-003, -1.54087320e-002,
          -1.85514335e-002, -7.16840476e-003, -4.39116312e-003,
          -2.67797802e-003, 3.48375482e-003, 1.74822006e-002,
          3.67128141e-002, 1.51888374e-002, -1.58579983e-002,
          -1.25854621e-002, -1.23660024e-002, -1.30278599e-002,
          -1.89226624e-002, 5.46718063e-003, 3.70010138e-002,
          3.72893969e-003, 4.16555628e-003, 1.61013950e-003,
          1.02118880e-003, -9.43320151e-003, -8.91805254e-003,
          -3.18660438e-002, -3.60766277e-002, 5.48001938e-003,
          3.29966168e-003, 6.61410019e-003, 5.49737737e-003,
          -1.46891468e-003, -1.48851555e-002, -5.30249998e-003,
          -1.31888986e-002, -1.29273674e-002, -3.55074950e-003,
          1.62659381e-002, 1.27040930e-002, -1.25683527e-002,
          -1.04223583e-002, -1.14632426e-002, -1.72272809e-002,
          -1.69961154e-002, 1.13782985e-003, 2.72963941e-002,
          7.52213178e-003, 1.92866288e-002, 4.76136291e-003,
          -6.90856832e-004, -1.42394938e-002, -1.54362824e-002,
          -1.17263831e-002, 3.31523875e-003, 1.30668469e-002,
          1.89990690e-003, 6.35843026e-003, 4.62632906e-003,
          -2.34983955e-003, -7.29153911e-003, -2.43230513e-003,
          -3.57541046e-003, -1.90712921e-002, -2.00081076e-002,
          7.10948510e-003, 2.35268883e-002, 1.22941704e-002,
          -5.92801953e-004, 1.72130892e-003, 4.69700620e-003,
          -1.28960684e-002, -2.45605856e-002, -2.18400657e-002,
          1.54725090e-003, 1.45358993e-002, 5.97398775e-003,
          -2.00336595e-004, -1.29291322e-002, -4.16778121e-003,
          -2.07035127e-003, 1.42384935e-002, -9.20460839e-003,
          -5.09538176e-003, 3.11862677e-003, 2.74469214e-003,
          -4.87826252e-003, 2.52169860e-003, 1.40668359e-002,
          7.15089263e-003, 4.00107773e-003, -8.81215557e-003,
          1.61592234e-002, 1.78526137e-002, 6.12406572e-003,
          1.58158818e-003, 3.58965388e-003, 8.95239529e-004,
          -8.77721515e-003, -2.22356934e-002, -1.94836166e-002,
          1.37718096e-002, 9.07263998e-003, 8.82514520e-004,
          5.33003453e-003, 1.78096187e-003, -3.47153074e-003,
          -6.05905475e-003, -6.90744910e-003, -1.39828213e-002,
          -1.18262265e-002, 6.48208195e-003, 7.59398658e-003,
          6.88415533e-003, 1.17138466e-002, 8.29104520e-003,
          3.89787601e-004, 4.23386344e-004, -1.42340176e-002,
          -1.35717373e-002, 1.17188916e-002, 1.44969998e-002,
          1.70074534e-002, 9.50835645e-003, -1.72553584e-003,
          -6.03269273e-003, 6.20069075e-003, -2.24498380e-003,
          1.44932570e-003, -2.93732202e-003, -4.52539930e-003,
          4.35589394e-003, 1.12383219e-003, 9.58369579e-004,
          1.89888000e-004, -3.06183286e-003, -2.56322091e-003,
          -6.41304243e-004, -7.70967407e-003, -6.28711702e-003,
          2.32378603e-003, 1.04308536e-003, 5.95886540e-003,
          3.39662167e-003, -1.24591775e-003, -3.29609006e-003,
          -1.15831615e-002, 3.28523293e-003, 3.18532833e-003,
          7.77547015e-003, -3.02020623e-003, -2.09280755e-003,
          3.54492432e-003, 7.64175132e-003, -4.78239119e-004,
          -1.06336260e-002, 5.17693814e-004, -3.29985865e-003,
          2.65807169e-003, -2.39985984e-005, 2.11695000e-003,
          -6.42090919e-004, -5.82977943e-003, 8.02281965e-003,
          1.34362001e-003, -8.57721176e-003, -5.50955441e-003,
          -9.96632851e-004, -4.78262128e-003, 4.19638446e-003,
          -3.32861836e-003, -8.60433374e-003, 4.08877060e-003,
          4.15471243e-003, 2.50850944e-003, -9.40815546e-004,
          8.21055030e-004, -1.28372514e-003, 1.47686794e-003,
          -2.91347061e-003, -1.16735343e-002, 1.14902444e-002,
          8.04164261e-003, 3.83761805e-003, -3.14353412e-004,
          1.13893312e-003, 1.99768646e-003, -2.25162148e-004,
          -1.47542162e-002, -3.32172699e-002, 1.40007157e-002,
          2.92237215e-002, 1.78970974e-002, 2.72965571e-003,
          1.68315100e-003, -1.77759398e-003, 3.09976377e-003,
          -1.21997045e-002, -3.34861390e-002, 1.64694563e-002,
          5.05276304e-003, 9.68670938e-003, -5.74509359e-005,
          3.73486924e-004, -6.57397695e-003, -1.09057417e-007,
          -2.67850235e-003, -1.28820362e-002, 3.16000171e-003,
          8.38509202e-003, 1.33128129e-002, -3.26274242e-003,
          -8.20720196e-003, -2.05995776e-002, -3.81268188e-003,
          -1.13371406e-002, -1.60218701e-002, -1.70829217e-003,
          3.15607078e-002, 2.02453211e-002, -1.44991081e-003,
          2.14530202e-003, -1.15382737e-002, 9.22669098e-003,
          -1.44611276e-003, -2.29717474e-002, -1.58076768e-003,
          3.47773880e-002, 1.82386655e-002, -5.92163345e-003,
          -1.03103800e-003, -2.04517189e-002, 3.87370307e-003,
          -7.23700831e-003, -2.09015477e-002, 3.34695610e-003,
          1.31138545e-002, 2.15461813e-002, 9.82323312e-004,
          -3.92435724e-003, -1.21086342e-002, -1.70398923e-003,
          -1.20381350e-002, -8.41363613e-003, -9.86996572e-003,
          -1.16655575e-002, 2.60674693e-002, 4.72454447e-003,
          8.05524760e-004, -1.96858705e-003, -8.93776538e-004,
          -1.09022520e-002, 2.35081441e-003, -2.56798975e-002,
          3.08738183e-002, 2.12136265e-002, 5.41319558e-003,
          8.18177033e-003, -6.38520857e-003, -2.44786358e-003,
          -1.14766024e-002, -1.92431659e-002, 2.29345122e-003,
          1.62842385e-002, 3.06287650e-002, 1.27036050e-002,
          8.65143351e-003, -3.56544764e-003, -5.94644248e-003,
          -1.25914542e-002, -1.37971304e-002, -4.60487092e-003,
          -2.92205322e-003, 2.35087201e-002, 1.31752593e-002,
          5.94880944e-003, -4.59938683e-003, 4.25378513e-003,
          -9.17753484e-003, -5.77642256e-003, -2.52740830e-003,
          1.90991778e-002, 2.42492985e-002, 6.11803913e-003,
          -4.58305236e-003, -8.28649011e-003, -1.17496885e-002,
          -2.68964730e-002, -2.91535910e-002, 6.52978080e-004,
          6.40754215e-003, -6.13249745e-003, 4.36342321e-003,
          1.16741173e-002, 6.55048853e-003, 5.20586921e-003,
          -1.00958040e-002, -3.35273729e-003, 1.88943036e-002,
          1.20667377e-002, -4.76309704e-003, -4.11272328e-003,
          6.43440569e-003, 8.81582312e-003, -2.98632105e-004,
          -2.56932434e-002, -2.98893861e-002, 1.96722187e-002,
          2.33849231e-002, 1.99646670e-002, 1.89651165e-003,
          -1.86965789e-003, -5.19614900e-003, -8.06043949e-003,
          -2.34886780e-002, -3.73817198e-002, -7.57316314e-003,
          1.15525145e-002, 1.44663318e-005, 1.89799559e-003,
          9.81648825e-003, 5.92165336e-004, -1.78167236e-003,
          -1.93305698e-003, -1.88435502e-002, 5.11452265e-004,
          1.60672087e-002, 4.91914805e-003, 5.83031122e-003,
          6.12501940e-003, 8.52034148e-003, 5.32130664e-003,
          -1.94749217e-002, -4.44442146e-002, 4.62471711e-004,
          1.18371220e-002, 3.01964604e-003, 4.09558509e-003,
          1.05356798e-002, 6.36832975e-003, -1.60173955e-003,
          -5.13887731e-003, -2.73638535e-002, -1.47175482e-002,
          1.54115986e-002, 7.26629095e-003, -2.62213754e-003,
          -2.11748271e-003, -1.01612080e-002, -1.53099857e-002,
          -5.53217623e-003, -9.60049592e-003, 1.26680061e-002,
          1.34615237e-002, 2.40423772e-002, 4.55630617e-003,
          7.13817030e-003, -9.42081865e-003, -1.41082937e-002,
          -9.69499070e-003, -1.21896332e-002, 7.31153600e-003,
          8.08017422e-003, 5.94523328e-004, -1.40619632e-002,
          -5.60806645e-003, -9.95488605e-004, -1.36708096e-002,
          3.39529081e-003, -1.65884867e-002, -1.14971735e-002,
          -2.75630108e-003, 1.76567156e-002, 8.02126154e-003,
          -3.78319761e-004, -1.34365540e-002, -9.98813659e-003,
          2.83539016e-003, -1.78387072e-002, -1.56909451e-002,
          5.72831742e-003, 2.01674905e-002, 4.46764426e-003,
          1.28918225e-002, 9.37536592e-004, -2.64248345e-003,
          -3.48858768e-004, -1.66824367e-002, -9.72456299e-003,
          -2.64369207e-003, 1.39983930e-002, 5.65843144e-003,
          3.69528984e-003, -3.69787170e-003, -7.17642251e-003,
          -1.20647456e-002, -2.28980761e-002, -1.56123703e-003,
          -1.11279553e-002, 1.52126309e-002, 1.87930930e-002,
          8.37398786e-003, -6.30158046e-003, 5.27656777e-003,
          2.81357439e-003, -1.51172923e-002, -1.66630149e-002,
          -5.37123065e-003, 1.77598558e-002, 6.99490122e-003,
          1.08729640e-003, -1.53101766e-002, -7.11726258e-003,
          -2.00420097e-002, -2.44322233e-002, 1.78801070e-003,
          8.95936135e-003, 6.64562872e-003, 3.34941060e-003,
          7.59300729e-003, 5.60334790e-003, 2.79710093e-003,
          -8.99803638e-003, -6.83745742e-003, 2.15902068e-002,
          4.38773446e-003, 1.70166790e-003, -4.18811990e-003,
          -3.50281451e-004, -3.40573140e-003, -1.15296468e-002,
          -7.54095847e-003, 1.21357106e-002, 2.68029757e-002,
          1.30638583e-002, 9.28888004e-003, -9.71148815e-003,
          -1.50895175e-002, -1.07660973e-002, -7.32122827e-003,
          -1.38482042e-002, -1.09400610e-002, 2.03007068e-002,
          1.38713112e-002, -1.43579859e-002, -2.65777875e-002,
          -2.10643094e-002, -1.69528350e-002, -2.04029903e-002,
          -1.33475987e-002, 4.09198180e-003, 3.08689661e-002,
          -1.12698635e-003, 1.09848874e-002, -1.54345087e-003,
          2.80582393e-003, -5.39293699e-003, -1.28667429e-002,
          7.63346907e-004, 6.91544125e-003, 1.59201596e-003,
          4.90269158e-003, 2.11271942e-002, 1.05918553e-002,
          1.62505955e-002, 1.47472089e-003, -5.63336164e-003,
          4.58189007e-003, -7.24449754e-003, -2.18750518e-002,
          -8.06590728e-003, -1.97804514e-002, -1.27849653e-002,
          -5.97024104e-003, -1.23959631e-002, -1.28744664e-002,
          -2.83589237e-003, 1.04444651e-002, 1.33482656e-002,
          -1.31498761e-002, -4.01172508e-003, 9.98117216e-003,
          2.12447066e-002, 1.09085413e-002, -9.42556746e-003,
          1.90984050e-003, 3.14467680e-003, -4.45717294e-003,
          1.64810363e-002, 1.57994255e-002, 1.05218496e-002,
          8.34339950e-003, -5.83526772e-003, -1.48245646e-002,
          3.41077032e-003, 1.10616570e-003, -5.80021180e-003,
          1.34084085e-002, 1.97180524e-003, -2.75535369e-003,
          -7.41091743e-003, -3.96216009e-003, -2.18815152e-002,
          -1.30010610e-002, -5.88583108e-003, -9.00987443e-003,
          5.73852193e-003, 4.96915588e-003, 1.55841066e-002,
          2.72591151e-002, 1.44816348e-002, -1.33975819e-002,
          -6.64271414e-003, -1.26518998e-002, -5.68592502e-003,
          1.13165481e-002, 9.51979123e-003, 1.51083292e-002,
          1.45991845e-002, 2.67601549e-003, -1.70977600e-002,
          -2.12488025e-002, -4.18974385e-002, -3.14803943e-002,
          1.27267400e-002, 1.26278298e-002, -2.56880000e-003,
          -8.43914039e-003, 6.06206653e-004, -8.61019921e-003,
          -1.45760225e-003, -1.88427488e-003, -5.44992229e-003,
          1.03700254e-002, 2.07330026e-002, -5.25300577e-003,
          -1.27959978e-002, -8.92360229e-003, -8.63712933e-003,
          5.94262406e-003, 2.50675604e-002, 1.38626061e-002,
          1.13690994e-003, 2.12708991e-002, 1.88189894e-002,
          -4.51805117e-003, -5.22738043e-003, -1.21074216e-002,
          -1.06963171e-002, -2.42624618e-002, -2.97635049e-002,
          -8.62868782e-003, 1.99570097e-002, 4.73704282e-003,
          -1.19188875e-002, -9.05575976e-003, -7.91035779e-003,
          8.27171002e-003, 7.87760131e-003, -1.23452535e-002,
          -1.42676868e-002, -1.61205989e-003, -1.26473531e-002,
          -1.09392917e-002, -1.02546075e-002, -9.04893968e-003,
          5.23828017e-003, 2.15183012e-002, 5.01048565e-003,
          -6.68359734e-003, 1.11361342e-002, 5.09241270e-003,
          -1.05076248e-003, -1.25869149e-002, -1.15019269e-002,
          -8.08691140e-003, 9.99097619e-003, -5.79761295e-003,
          -3.58720906e-002, -7.70654483e-003, -4.63532005e-003,
          -4.37519979e-003, -4.82739368e-003, 2.67534168e-003,
          1.74225997e-002, 2.16051117e-002, -1.10020535e-002,
          -1.67050660e-002, 3.25706531e-003, 1.01405354e-002,
          5.66735456e-004, -1.19925551e-002, 7.26364041e-003,
          1.45248706e-002, 2.18901653e-002, -5.78403519e-003,
          5.36056142e-003, 1.37177277e-002, 6.30601123e-003,
          -4.05423256e-004, -1.47681618e-002, -5.59291802e-003,
          -9.03007761e-003, 3.12763685e-003, -4.69872309e-003,
          1.49817448e-002, -1.53564720e-003, -1.07810982e-002,
          -9.12503060e-003, -7.13128597e-003, 7.72059755e-003,
          1.83154866e-002, 1.44655816e-002, 2.50057736e-003,
          8.61054286e-003, 1.95632409e-002, 1.61932223e-002,
          -7.35220918e-003, -2.57484987e-002, -3.74124991e-003,
          -2.10030106e-004, 5.71680209e-003, -3.42836138e-003,
          1.92467738e-002, 2.35040765e-002, 7.35039730e-003,
          -6.03050599e-003, -2.02791933e-002, -9.67490580e-003,
          3.21029825e-003, 8.57525971e-003, 5.47198579e-005,
          3.49909329e-004, 6.54413505e-003, -5.39485132e-003,
          5.93295088e-004, -7.37251481e-003, 1.07839704e-003,
          9.79975425e-003, 1.55045278e-002, -4.79433825e-003,
          -1.25194956e-002, 1.27843171e-002, 7.62231275e-003,
          1.18801370e-002, -7.52654532e-003, -5.12118777e-003,
          -2.55320477e-003, 9.45649203e-003, -6.97715022e-003,
          1.05593903e-002, 9.68806446e-003, 1.16171886e-003,
          8.56794213e-006, -1.18822958e-002, -1.17134191e-002,
          -1.84526993e-003, 1.16950544e-002, -8.06694292e-003,
          -8.29820149e-003, -2.67542130e-003, 4.70930897e-003,
          7.47610256e-003, -7.45273475e-003, -1.53537644e-002,
          6.80939003e-004, 2.02366803e-002, 8.97187460e-003,
          -7.58648710e-003, 9.52372700e-003, 8.97245388e-003,
          7.49240024e-003, -7.74443895e-003, -7.31948670e-003,
          -1.58473710e-003, 6.78514177e-003, 1.46066071e-003,
          -1.48770725e-002, 7.22690811e-003, 3.88427498e-003,
          5.20684989e-003, -3.37235001e-003, -4.21947753e-003,
          -7.06402026e-003, -1.45711927e-002, -4.60379105e-003,
          -9.91199911e-003, 1.62548164e-003, 1.05299270e-002,
          1.37561141e-002, -5.74897043e-003, -7.46451784e-003,
          -3.67653533e-003, 2.18687039e-002, 1.78833492e-002,
          -1.15446728e-002, 1.58799104e-002, 1.79068856e-002,
          1.31515590e-002, -1.29703025e-003, 2.19323509e-003,
          -4.60565649e-003, -6.03927393e-003, -1.86123885e-002,
          1.04739135e-002, 1.44957388e-002, 5.87864220e-003,
          5.98728331e-003, 1.51511515e-003, -2.80133565e-004,
          -6.64331776e-004, -1.88559666e-002, 3.74670117e-003,
          2.35000476e-002, 1.29573559e-002, 4.71305940e-003,
          4.70782351e-003, -9.55220021e-004, 5.34989405e-004,
          -5.25646377e-003, -1.72309075e-002, 6.56701764e-003,
          -4.41391626e-003, 2.29998603e-002, 1.09798387e-002,
          9.19002853e-003, 3.98098084e-004, 2.07126467e-003,
          3.44025041e-003, -8.47593788e-003, -2.10519023e-002,
          -8.46552663e-003, 4.85865725e-003, 2.83020246e-003,
          1.13202389e-002, 6.69813110e-003, -4.02430817e-003,
          -1.40286679e-003, -1.59183349e-002, -1.67224035e-002,
          1.24820825e-002, 6.47343090e-003, 3.38334194e-003,
          9.49163921e-003, 1.18899776e-003, 8.79662950e-003,
          2.61997012e-003, -1.10246663e-004, 5.17024426e-003,
          1.32311694e-002, 2.37229932e-003, 4.73929278e-004,
          7.86853675e-003, 2.36525736e-003, 3.49252927e-003,
          5.78796025e-003, -2.21058680e-003, 7.65142450e-003,
          -1.31550385e-002, -7.96346366e-003, 1.28333457e-003,
          1.74148940e-002, 1.87350083e-002, -3.48574691e-003,
          -7.22513348e-003, -7.54009467e-004, -1.33044068e-002,
          -4.40030545e-003, -1.22050075e-002, 5.05379681e-003,
          1.49270371e-002, 1.73916505e-003, -2.37758970e-003,
          -3.27424728e-003, 7.17794662e-003, 5.61256474e-003,
          2.39366312e-002, 6.63507823e-003, -2.77250842e-003,
          8.50652065e-003, 5.94425481e-003, -1.28033920e-003,
          1.59823266e-003, -1.37664909e-002, -3.60113452e-003,
          2.73024328e-002, 8.26923084e-003, -3.18157091e-003,
          3.45006655e-003, 2.79454654e-003, -4.49458789e-003,
          -6.92526391e-003, -1.65831558e-002, 7.67565938e-003,
          2.28400901e-002, -1.45785831e-004, -2.82707857e-004,
          7.24978326e-003, -9.00052115e-003, -8.78448691e-003,
          -1.34755839e-002, -2.34792400e-002, 5.40120527e-003,
          2.62400322e-002, -1.30957896e-002, -1.33651448e-002,
          -4.49047098e-003, -3.69866402e-003, -7.73160020e-004,
          -2.73802946e-003, -2.52607036e-002, 4.70279809e-003,
          1.14575392e-002, 3.14817508e-003, 9.45607852e-003,
          1.50056183e-002, 1.25048924e-002, 9.80508793e-003,
          -3.96211864e-003, -9.56206676e-003, 3.90635710e-003,
          -1.79737969e-003, -7.53631769e-003, -4.64386278e-004,
          9.63003747e-003, 1.64598357e-002, 1.48473121e-002,
          -9.67769977e-003, -1.67704467e-002, -3.70569155e-003,
          3.13387765e-003, -1.48738816e-003, 1.35758501e-002,
          1.69530790e-002, 7.49831507e-003, 1.24788815e-002,
          -3.44519969e-003, -6.58973167e-003, -3.68449348e-003,
          -6.54633250e-003, -4.56128130e-003, 6.23615645e-003,
          5.13436506e-003, 3.70250922e-003, 7.46800704e-003,
          -9.36304126e-003, -1.06013920e-002, -1.68389063e-002,
          6.76296279e-003, -4.66001639e-003, 2.82414258e-003,
          7.58257788e-003, 1.75494570e-002, 1.87323522e-002,
          -4.68790112e-003, -1.66216604e-002, -5.17860753e-004,
          2.04805396e-002, -6.56541524e-005, -2.23453809e-003,
          4.19346587e-004, 5.08243497e-003, 1.29582523e-003,
          -1.13768189e-003, -2.00798549e-002, -7.93367531e-003,
          -3.01904348e-003, 1.10763386e-002, 1.33484369e-002,
          6.13934186e-004, 2.58179032e-003, 1.56573690e-002,
          -4.39508026e-003, -4.93297819e-003, -1.97098516e-002,
          1.07920952e-002, 1.78582419e-003, 6.91698678e-003,
          -2.62894528e-003, -4.84579708e-003, -1.00210635e-003,
          -9.82209202e-003, 9.28089861e-003, -9.47600324e-003,
          1.78769194e-002, 3.07651516e-003, -7.75151467e-003,
          -9.07887518e-003, 3.54884076e-004, -8.93252622e-003,
          5.36890887e-003, -8.88902042e-003, -5.93735790e-003,
          -1.88956957e-003, 1.24414125e-002, 4.22735931e-003,
          -7.23968958e-003, -7.47811515e-003, -1.21271852e-002,
          1.51023911e-002, 1.16436100e-002, 2.28762510e-003,
          1.60874259e-002, -1.24667594e-002, -1.05905125e-003,
          -1.60146151e-002, -1.16290376e-002, -1.66117046e-002,
          -1.37013551e-002, 1.17834779e-002, 6.03879709e-003,
          -9.27105453e-003, -3.86403617e-003, 1.87530052e-002,
          1.96484616e-003, -1.12767555e-002, -2.27931906e-002,
          -7.18075130e-003, 9.22925305e-003, 1.67616289e-002,
          -9.14976187e-003, 3.87564953e-003, 8.35516676e-003,
          3.93126626e-003, -8.73041980e-004, -1.68293936e-003,
          -1.05912983e-003, 6.85980357e-003, 3.61678586e-003,
          -3.36804357e-003, 1.04204463e-002, 8.97723343e-003,
          6.83064852e-003, 1.81217631e-003, 4.45379829e-003,
          -1.26242600e-002, -3.71960201e-003, 7.41761411e-003,
          -2.00518183e-002, 9.23550408e-003, 1.81917399e-002,
          1.18848467e-002, 5.74034732e-003, -9.22188815e-003,
          -1.15713999e-002, -2.90449010e-003, -2.13772710e-003,
          -1.92287024e-002, -3.15171829e-003, 1.63194034e-002,
          1.21710449e-003, 7.68014137e-003, 4.06543026e-003,
          -8.65662843e-003, -1.33885266e-002, -7.72357173e-003,
          1.05333673e-002, 1.26107540e-002, 1.42565847e-003,
          -3.17680533e-003, 5.34096919e-003, 4.10186840e-005,
          1.68339547e-003, -2.73670838e-003, 1.31755071e-002,
          1.49679929e-002, 6.87884516e-004, -1.52507122e-003,
          -7.45188352e-003, 5.17144566e-004, -1.07700350e-002,
          -3.36930202e-003, -1.74365856e-003, 1.01671675e-002,
          -5.81125403e-003, -8.21891148e-003, 7.57141598e-003,
          4.63436299e-004, 9.79528017e-003, -9.11686628e-004,
          2.77924864e-003, -4.96283500e-003, 6.04206324e-003,
          -8.24860577e-003, -1.85937304e-002, 4.64819884e-003,
          6.02404587e-003, 1.71858184e-002, -7.41874566e-003,
          -5.86530101e-003, -9.02671367e-003, 2.42956053e-003,
          -7.21859746e-003, -8.06362741e-003, 2.67078704e-003,
          5.44653554e-003, 1.41560486e-005, -1.06866863e-002,
          -6.76697446e-003, -6.21586246e-003, -2.19174573e-004,
          -8.88354518e-003, 6.23194128e-003, 1.88504718e-002,
          2.47354452e-002, 1.09431706e-002, -7.40709901e-003,
          -3.25640244e-003, -2.45527178e-003, -2.41416390e-003,
          -1.40945632e-002, -1.14724794e-002, 1.90028977e-002,
          1.25640444e-002, 2.69563729e-003, -1.22490786e-002,
          -1.24099590e-002, -1.43598430e-002, -1.44312857e-003,
          -1.31522827e-002, 4.75194398e-003, 2.78529376e-002,
          2.67894417e-002, -3.98867670e-003, -7.01860432e-003,
          -9.30825435e-003, -5.60326735e-003, -3.79852927e-003,
          1.58228900e-003, 6.18646853e-003, 2.00285036e-002,
          2.33090036e-002, 1.15062902e-002, -1.06058335e-002,
          -1.38585446e-002, -1.21226953e-002, -8.14557448e-003,
          6.30698865e-003, -7.10938417e-004, 8.28821957e-003,
          1.62800718e-002, -2.96674320e-004, -1.47773828e-002,
          -1.02731418e-002, -2.44234484e-002, -2.25526188e-002,
          -1.24097627e-003, 6.89852238e-003, 1.72965899e-002,
          1.40330009e-002, -1.96064566e-003, -4.58003051e-004,
          -6.73349528e-003, -3.87992547e-003, -6.31809235e-003,
          6.58573676e-003, -1.78222079e-004, 1.11783622e-002,
          1.86093710e-002, 2.14318838e-003, -5.28442627e-003,
          5.47284784e-004, -3.71280429e-003, -1.04242265e-002,
          -2.27796636e-003, 1.81026347e-002, 2.37258021e-002,
          2.00030860e-003, -9.37568117e-003, -9.91271809e-003,
          -3.41275893e-003, -1.05475830e-002, -2.83301231e-002,
          -1.27074104e-002, 1.73878912e-002, 1.30022541e-002,
          -1.63867441e-003, -1.11611793e-003, 9.55792202e-004,
          5.81093691e-003, -9.91025753e-003, -1.69341322e-002,
          7.28381891e-003, 1.41461296e-002, 1.92396306e-002,
          9.20387637e-003, -5.48105966e-003, -7.16633722e-003,
          -2.18794169e-003, 9.50692873e-003, -2.71440740e-003,
          -1.43685564e-002, 1.63633991e-002, 8.44983384e-003,
          3.79085890e-004, -3.14598298e-003, -8.67095310e-004,
          1.00586861e-002, 1.06393853e-002, -3.82249989e-003,
          -3.25073227e-002, -3.64241307e-003, 3.12641333e-003,
          5.15026506e-004, 4.06024000e-003, 9.72552970e-003,
          1.72811113e-002, 9.34868772e-003, -2.90456624e-003,
          -1.49984444e-002, -2.58809468e-003, 1.56547111e-002,
          1.18488027e-002, 3.40094091e-003, 7.21528800e-003,
          1.48310205e-002, 1.30265243e-002, 1.58513885e-003,
          -3.89087424e-002, 1.23350683e-003, 7.88842095e-004,
          4.83714743e-003, 9.77828167e-003, 1.22246742e-002,
          1.36658149e-002, -1.17876253e-003, -2.25115567e-002,
          -2.82047037e-002, -8.84202600e-004, 5.21277823e-003,
          1.30963055e-002, 1.30414544e-002, 1.40866870e-002,
          1.09129706e-002, -3.68081057e-003, -1.90513581e-002,
          3.45270173e-003, 2.26296205e-002, 1.87190399e-002,
          2.51436210e-003, -1.18436832e-002, -2.65241996e-003,
          6.57022605e-003, 2.25886935e-003, -1.59995649e-002,
          1.07939951e-002, 3.65412757e-002, 1.36031881e-002,
          -9.60298115e-004, -6.95224386e-003, -7.76263839e-003,
          2.36677425e-003, 4.82744596e-004, -1.45267583e-002,
          -1.52042815e-002, -2.81377416e-003, -2.71542580e-003,
          4.18052776e-003, 5.97698847e-004, 5.18769724e-003,
          1.23215606e-002, 9.42155253e-003, -1.64159704e-002,
          2.17554974e-003, 2.08782274e-002, 2.62571732e-003,
          6.42036903e-004, -7.13096559e-003, -8.67282914e-004,
          -2.21246108e-003, 7.69961579e-003, -1.48904957e-002,
          3.46883410e-003, 8.07626452e-003, 8.95652222e-004,
          1.88911706e-003, -6.88815815e-003, -7.59981759e-003,
          5.50084515e-003, 7.96727650e-003, -4.99719800e-003,
          -3.83475353e-003, -8.33861157e-003, -8.08412209e-004,
          1.10480906e-002, -2.30584783e-003, -3.23747052e-003,
          1.69584751e-002, 2.04114802e-002, 1.62571128e-002,
          5.84475929e-003, 1.30599774e-002, 2.06682622e-003,
          -8.70190037e-004, -8.79090186e-003, -6.13907678e-003,
          -5.70257660e-003, 2.73523200e-003, 2.97103240e-003,
          -1.85523892e-003, 6.94693066e-003, 1.95368379e-002,
          1.50743714e-002, 1.12247898e-003, 1.29755577e-002,
          8.45861062e-003, -7.60934921e-003, -7.69250467e-003,
          -1.20239593e-002, -1.98190790e-002, -2.00633355e-003,
          8.35838541e-003, -3.55739542e-003, -2.58701737e-003,
          7.36422883e-003, 3.02225929e-002, 2.61590332e-002,
          -2.58232038e-002, -6.30595395e-003, 1.57066667e-003,
          3.84141039e-003, -1.98884751e-003, 2.85389996e-003,
          2.25072587e-003, 1.91861242e-002, -1.95208599e-003,
          -3.47131118e-003, -2.73785088e-003, 1.51623953e-002,
          1.29136723e-002, 7.27650430e-003, 1.10880882e-002,
          8.42333119e-003, 4.11845651e-003, -1.04892598e-002,
          -2.00534202e-002, 1.50554709e-003, 9.59519111e-003,
          1.22195259e-002, 2.79214024e-003, 8.67959764e-003,
          8.64457618e-003, 8.97579826e-003, -1.44523177e-002,
          -3.74581455e-003, 2.26081088e-002, 1.51332477e-002,
          1.03195123e-002, 7.35448720e-003, 6.57851575e-003,
          6.96673477e-003, 7.39000924e-003, -1.50168110e-002,
          -1.34788603e-002, 7.26169161e-003, 4.76705609e-003,
          1.24010099e-002, 1.23701803e-002, 9.68875363e-003,
          6.58986019e-003, -2.24665552e-002, -3.84844057e-002,
          -3.57338390e-003, 2.03112047e-002, 2.26409640e-002,
          2.13046484e-002, 1.22166956e-002, 1.09264208e-002,
          1.25058210e-002, 1.03422478e-002, -1.94575470e-002,
          2.72413436e-003, 1.48443105e-002, 9.91400052e-003,
          1.19382562e-002, 3.04487045e-003, 4.66865115e-003,
          -1.14065537e-003, -1.53684318e-002, -1.69934183e-002,
          -9.97602101e-003, -3.14247957e-003, -1.57623971e-003,
          7.46685313e-003, 9.00571514e-003, 5.50227659e-003,
          4.14901355e-004, -1.17470203e-002, -1.15110734e-002,
          2.98964768e-003, -1.22983102e-003, 4.59056348e-003,
          9.19658598e-003, 1.33706899e-002, 2.30863155e-003,
          -1.09276054e-002, -2.77768634e-003, 6.34269789e-003,
          1.41102979e-002, 1.54547840e-002, 5.07786218e-003,
          6.86576450e-003, -8.36555287e-003, -1.73922279e-004,
          -1.03612086e-002, -2.21878644e-002, -8.57890025e-003,
          4.10583662e-003, 1.95992887e-002, 8.97919666e-003,
          7.22616678e-003, 9.02893580e-003, -4.82302683e-004,
          -9.53312218e-003, -1.17476061e-002, -1.14864716e-002,
          1.90137681e-002, 7.45285721e-003, -1.90660430e-004,
          5.14050247e-003, 7.26398779e-003, -2.12216331e-003,
          -1.57149564e-002, -1.11328419e-002, 1.57726053e-002,
          2.76050940e-002, 1.06640654e-002, -6.02455065e-003,
          -6.38419902e-003, -2.15042639e-003, 3.88505426e-003,
          5.64601459e-003, -2.49212375e-003, 1.13325696e-002,
          -7.35555601e-004, 2.28162599e-003, -9.58513562e-003,
          -2.70039216e-003, 1.29985772e-002, -1.80427311e-003,
          -9.03330650e-003, -9.88018513e-003, -1.27241001e-004,
          -5.10503538e-003, -2.11931369e-003, -1.06600840e-002,
          -1.51995746e-002, 1.75422011e-003, 7.90326204e-003,
          1.14828711e-002, 4.16868785e-003, 1.01792405e-003,
          1.27217267e-002, 1.38960441e-003, 1.40990391e-002,
          1.79827213e-002, 1.49380602e-002, 1.13841724e-002,
          4.62463684e-003, -3.68489861e-003, -6.33643754e-003,
          2.12190971e-002, 4.11502086e-003, 7.08767027e-003,
          5.09395613e-004, 1.39835314e-003, 4.91509447e-003,
          -4.52615833e-003, -3.13541829e-003, -2.06892239e-003,
          -2.56962534e-002, -1.37194330e-002, 2.55391281e-003,
          1.25492690e-002, 8.63399915e-003, 5.88846346e-003,
          1.66411381e-002, 1.00392709e-002, -1.30195338e-002,
          -1.97663289e-002, -2.89025605e-002, -9.05538164e-003,
          1.86265260e-003, 2.75599351e-003, 7.25868158e-003,
          1.92447547e-002, 1.87072419e-002, -4.61011613e-003,
          3.37838102e-003, 6.59976015e-003, 1.15779098e-002,
          -1.30457794e-002, -9.59104858e-003, -3.58896126e-004,
          -6.52770000e-003, -1.28709723e-003, 2.48149084e-003,
          -5.30595006e-003, 5.96542796e-003, 1.16171902e-002,
          -8.69511254e-003, -9.62376781e-003, -8.11704807e-003,
          -8.00829194e-003, 2.92923418e-003, -1.20719103e-003,
          -1.46639301e-002, -2.40096562e-002, -5.42409718e-003,
          -7.27598229e-003, -6.57215191e-004, 8.98382859e-004,
          1.41647989e-002, 2.18270570e-002, 6.03985507e-003,
          -2.07501440e-003, -8.19602981e-003, 7.08214939e-004,
          -9.22060106e-003, -4.16662637e-003, 2.64906674e-003,
          1.51226604e-002, 2.11065616e-002, 1.45386038e-002,
          -2.77503626e-003, 2.99110450e-003, 7.38434121e-003,
          -1.34635819e-002, -1.66324433e-002, -1.45304808e-002,
          -1.59894060e-002, -3.27721983e-003, 5.22411428e-003,
          -1.58638451e-002, -1.15203578e-003, 2.74801496e-002,
          6.85684336e-003, -3.80589208e-003, -4.80670482e-003,
          -1.54937627e-002, -1.82830188e-002, -3.09243426e-003,
          1.11466227e-002, -9.25766362e-004, -2.68435315e-003,
          -1.60776824e-002, -1.45250177e-002, -5.81127545e-003,
          -2.69053999e-004, 5.16931899e-003, 2.14040428e-002,
          -4.83359536e-003, 1.20885791e-002, 9.14625172e-003,
          -5.85432444e-003, 2.92264274e-003, 1.43104959e-002,
          3.89408204e-003, -8.02277995e-004, -2.36067851e-003,
          -1.69719290e-002, 1.87628381e-002, 2.87666991e-002,
          1.21683972e-002, 7.90911634e-003, 1.21644931e-003,
          -7.48391962e-003, -1.72102693e-002, -2.00443659e-002,
          -2.16502184e-003, -1.57197646e-003, -5.29101584e-004,
          -5.64692682e-003, 5.81803871e-003, -1.59402564e-003,
          -7.91118853e-003, -2.00808439e-002, -1.19147738e-002,
          2.86495453e-003, 1.35302246e-002, 3.05633340e-003,
          2.13357410e-003, 1.31506436e-002, 1.14919264e-002,
          6.68861670e-003, 8.40596762e-003, -1.78143557e-003,
          2.58692782e-002, -7.14147044e-003, -2.17451360e-002,
          -8.75776261e-003, 1.54218182e-003, -1.05990674e-002,
          -1.30846947e-002, -1.41273430e-002, 1.55190588e-003,
          9.49183572e-003, -1.98755004e-002, -9.00307018e-003,
          -7.05661112e-003, -2.07581528e-004, -5.14799263e-003,
          -3.42825241e-003, -1.22839222e-002, 7.16476096e-003,
          -1.28421700e-003, -2.52396390e-002, -1.58964396e-002,
          -4.49765148e-003, 9.25472751e-003, 4.96963388e-004,
          -4.77614859e-003, -2.13496736e-003, 9.75592248e-003,
          3.93261239e-002, -5.60648646e-003, -1.05832256e-002,
          -4.78577800e-003, 2.65940325e-003, -7.46082328e-003,
          -1.39373355e-002, -1.95368882e-002, 1.19439652e-002,
          1.89653505e-002, -7.85648543e-003, -6.66756835e-003,
          -6.18440611e-003, 1.69473048e-002, 5.77308983e-003,
          -1.10733677e-002, -9.82136372e-003, 4.69932659e-003,
          -4.10826504e-003, -5.22258366e-003, -2.46455055e-003,
          2.02705991e-003, 7.39334058e-003, -2.73916428e-003,
          -7.55011803e-003, -4.51966422e-003, -5.25194686e-003,
          -1.70860952e-003, 7.33964331e-003, 1.30776688e-002,
          1.24260737e-002, 1.14146923e-003, -3.03149107e-003,
          -2.66508455e-003, 1.93439063e-003, -1.40444124e-002,
          -7.18151452e-003, -1.32660922e-002, -1.44079495e-002,
          4.00972925e-003, 1.98243540e-002, 1.08503764e-002,
          -4.19204403e-003, -2.50374456e-003, -1.61450729e-002,
          -2.84418631e-002, -9.88782011e-003, -3.35486652e-003,
          1.43932337e-002, 1.25152245e-002, 9.87351872e-003,
          4.93542943e-003, 1.01298885e-002, -2.62647513e-002,
          3.92746041e-003, 7.79408682e-003, 9.40721855e-003,
          1.06450925e-002, 4.00732225e-003, 8.25222116e-003,
          1.23080472e-003, 8.96022248e-004, -8.37561488e-003,
          1.27315416e-003, -1.45427566e-002, 1.94986537e-003,
          1.02203833e-002, 8.53383075e-003, 5.81245404e-003,
          2.69630633e-004, -2.82409746e-004, 3.79555684e-004,
          -1.26841115e-002, -4.77768667e-003, 4.67594853e-003,
          1.45319989e-002, 1.28725339e-002, 1.44447498e-002,
          4.35339147e-003, -5.53929567e-005, -2.19603274e-002,
          -2.83531076e-003, -1.87172852e-002, -2.17537619e-002,
          -8.97589233e-003, 1.48823834e-003, 3.05065350e-003,
          -9.80134960e-003, -1.07547138e-002, -5.94275014e-004,
          7.18716066e-003, -3.99314892e-003, 3.33550596e-003,
          2.08250131e-003, -1.59705849e-003, -1.00062450e-003,
          1.63914938e-003, 1.26595153e-002, 8.64950102e-003,
          -1.26673409e-003, 8.44871067e-003, -3.73430480e-003,
          -7.12762447e-003, 1.73529948e-003, 3.52273881e-003,
          9.70630720e-003, 1.48703633e-002, 9.12956707e-003,
          -7.20142794e-004, -1.30501343e-002, -1.68596637e-002,
          -1.66541394e-002, -1.12988232e-002, -6.99775014e-003,
          -1.16198650e-002, -1.56944749e-004, 1.37357572e-002,
          1.76380239e-002, 4.54856345e-004, -2.08633058e-002,
          -2.13499069e-002, -9.62661486e-003, -5.12482366e-004,
          -3.45832133e-003, 1.29045816e-002, 2.84334738e-002,
          -1.91388223e-002, -2.78985710e-004, -4.46436508e-003,
          3.60559649e-003, 1.19407363e-002, 1.34794628e-002,
          9.11523029e-003, 1.46605761e-003, -5.52746048e-003,
          -1.30873350e-002, 1.05694099e-003, -2.35595927e-003,
          -1.43902993e-003, 1.41850160e-002, 2.12093871e-002,
          1.75598990e-002, -5.08045591e-003, -1.28109055e-002,
          -8.43698625e-003, -1.45982020e-002, -1.93946846e-002,
          -1.02093928e-002, 2.45219358e-004, 5.19296760e-003,
          4.25838726e-003, 5.54139586e-003, 8.05912539e-003,
          -4.83614299e-003, -2.20793858e-002, -1.85616631e-002,
          -1.51184043e-002, -5.93806244e-003, 6.39799237e-003,
          1.12865465e-002, 8.65024328e-003, 2.11134423e-002,
          -7.82212429e-003, 1.58280809e-003, -1.94021745e-003,
          -4.10156045e-003, 2.54869321e-003, 5.23190806e-003,
          1.07888440e-002, 1.71469268e-003, -7.71931605e-003,
          1.04418928e-002, 1.58154368e-002, 2.01306976e-002,
          5.01783099e-003, -1.21338177e-003, -5.56872226e-003,
          -1.17488233e-002, -5.96717885e-003, -2.53550964e-003,
          -8.26551858e-003, -1.41936345e-002, -1.45744933e-002,
          -1.83282141e-002, -1.09633757e-002, -1.64071587e-003,
          4.72751586e-003, 6.08002860e-003, 1.52048711e-002,
          7.73457671e-003, 6.33894326e-003, 1.06941815e-002,
          -3.15553043e-003, -4.00213804e-003, -2.81539140e-003,
          -7.62226200e-003, -2.36391649e-003, -1.60425506e-003,
          1.03702806e-002, 2.22792756e-002, 2.65078302e-002,
          1.25226071e-002, 3.05960490e-003, -3.92243639e-003,
          -1.80503614e-002, -1.56133976e-002, -1.94975501e-003,
          3.60841560e-003, 2.18203329e-002, 3.83281969e-002,
          2.13291515e-002, 1.11179817e-002, 1.22537464e-002,
          -4.25753277e-003, -1.65021010e-002, -2.01516990e-002,
          1.93641894e-002, 1.36229377e-002, 1.74875278e-002,
          1.04196658e-002, 2.91891117e-003, -2.98988482e-004,
          -1.17483083e-002, -1.75376553e-002, -8.93824268e-003,
          -4.16152272e-003, 1.62801873e-002, 1.99810285e-002,
          1.03850961e-002, 7.86817726e-003, 8.29076115e-003,
          -2.50982400e-003, -1.56901293e-002, -3.84135582e-002,
          -2.88974750e-003, 3.83812073e-003, 2.62032077e-002,
          1.91033371e-002, 1.86793525e-002, 1.86864343e-002,
          9.71767679e-003, -3.46473930e-003, -2.07751896e-002,
          -1.84920337e-002, 1.18389130e-002, 1.67933796e-002,
          1.54711409e-002, 1.95734724e-002, 2.13475171e-002,
          1.79817621e-002, 1.18144304e-002, -2.14763824e-002,
          -1.02261212e-002, -1.33991847e-003, 1.36398505e-002,
          8.04507546e-003, 9.00442246e-003, 1.31529709e-002,
          6.04447769e-003, -5.77053474e-003, -3.04083750e-002,
          -8.90874770e-003, -1.66016037e-003, 2.19578156e-003,
          6.70027593e-003, 2.08646748e-002, 1.72663610e-002,
          1.54295117e-002, 1.35808699e-002, -1.32574355e-002,
          -7.78408069e-003, 1.99868400e-002, 1.50705678e-002,
          1.46999592e-002, 8.28597974e-003, 7.59655656e-003,
          6.46808185e-003, 1.36462934e-002, -2.20838152e-002,
          1.71261244e-002, 1.85076185e-002, 7.94161018e-003,
          7.77787203e-003, -3.99319176e-003, -4.63844510e-003,
          -9.41279251e-003, 1.87602232e-003, 4.38334513e-003,
          -8.10799189e-003, 3.21387011e-003, 2.03239033e-003,
          7.32490513e-003, 1.47286635e-002, 8.83746240e-003,
          6.96640322e-003, 1.15678869e-002, -1.95961930e-002,
          -1.91120815e-003, 8.19045026e-003, 5.69719821e-003,
          6.43846858e-003, 9.78863682e-004, -8.12499435e-004,
          -2.46615708e-003, 1.51966023e-003, -1.14879468e-002,
          2.43713260e-002, 2.15601306e-002, 1.37322908e-002,
          8.38229991e-003, -4.55955788e-003, -4.96694935e-004,
          -5.93963079e-003, -7.68340798e-003, 1.21264497e-003,
          1.28472969e-003, 1.56447701e-002, 1.12880964e-003,
          7.58150080e-003, -3.17626190e-003, 1.45910610e-003,
          -2.11870042e-003, -6.45707315e-003, -1.81847829e-002,
          1.47458483e-002, 1.57251675e-002, 1.51618000e-003,
          2.16810242e-003, -3.50250630e-003, 2.35647638e-003,
          1.12166943e-003, -6.06781663e-003, -5.25415782e-003,
          1.62129086e-002, 1.51072396e-003, -7.06480956e-003,
          -5.51928720e-003, -7.50876078e-003, -3.07137729e-004,
          -4.85480577e-003, 1.00767054e-003, 4.90978034e-003,
          1.24853710e-003, 9.39917937e-003, -7.48673687e-003,
          3.81785049e-003, 6.29850337e-003, 1.29142520e-003,
          1.56080921e-003, -2.25069793e-003, -7.29009742e-003,
          -1.29976403e-002, -1.47088114e-002, -7.75678782e-003,
          -9.70901921e-003, 5.49753988e-003, 3.01455148e-003,
          9.13585629e-003, 4.51491633e-003, 2.40414683e-003,
          1.82885192e-002, -1.10194003e-002, -1.66604817e-002,
          -1.52363693e-002, -2.17923871e-003, -3.15192214e-004,
          6.47345465e-003, 1.83902644e-002, 1.90143771e-002,
          5.46793221e-003, -2.22014375e-002, -9.87763051e-003,
          -1.04053682e-002, 2.56425911e-003, 5.23382472e-003,
          1.38209835e-002, 2.16275193e-002, 2.07264144e-002,
          -2.63049733e-002, -5.79350581e-003, -3.38791171e-004,
          2.59534712e-003, 5.10394573e-003, 4.72073769e-003,
          1.83304623e-002, 2.54888199e-002, -3.28203291e-003,
          -2.25810520e-002, -1.50753707e-002, -3.96397198e-003,
          -2.45503616e-003, 5.73373726e-003, 1.66347215e-003,
          2.69638505e-002, 3.39792594e-002, 5.10198157e-003,
          -1.27177658e-002, -9.62314848e-003, -1.03709972e-005,
          -8.07139277e-003, -2.03410187e-003, -2.86149210e-003,
          7.98040349e-003, 2.84730978e-002, 2.10620798e-002,
          4.81918128e-003, -7.34441960e-003, -7.61886500e-003,
          -9.26233921e-003, 1.56669319e-003, -3.39330384e-003,
          5.91702480e-003, 4.03474197e-002, 2.85160188e-002,
          -3.07134148e-002, -2.25259382e-002, -8.81987810e-003,
          -4.70904494e-003, 3.63319460e-003, -1.90276676e-003,
          7.55034946e-003, 2.07342748e-002, -1.86676774e-002,
          -1.42514296e-002, -1.19596273e-002, -3.20215523e-003,
          -1.02491789e-002, -3.62536928e-004, 8.03671777e-003,
          2.19583325e-002, 3.07350866e-002, 9.87942051e-003,
          -1.42150745e-002, -2.13339906e-002, -1.83828622e-002,
          -9.15263966e-003, -1.07982464e-003, -6.20512711e-003,
          -4.59187152e-003, 2.37714984e-002, 9.18518100e-003,
          -9.00747138e-004, -1.92725286e-002, -7.53496774e-003,
          -8.03716294e-003, -6.02154247e-003, -8.45200673e-004,
          1.35686025e-002, 3.85961495e-002, 2.86833104e-002,
          -1.23929512e-002, -1.01183774e-002, -8.25429615e-003,
          -1.60651859e-002, -1.03848819e-002, -4.03444329e-003,
          1.01541253e-002, 6.66188775e-003, 1.00933872e-002,
          -1.67940930e-002, -1.72103327e-002, -1.12583358e-002,
          -9.13614593e-003, 8.54687416e-004, 6.84685353e-003,
          1.08643807e-002, -4.12549078e-003, 3.01643950e-003,
          -9.03622992e-003, -2.31580716e-002, -8.47187545e-003,
          -1.23029519e-002, -1.00568561e-002, -8.73563159e-003,
          5.31949382e-003, 2.27165874e-002, 2.14748755e-002,
          -5.17130038e-003, -2.76136026e-002, -2.13730447e-002,
          -1.21874278e-002, -1.11686876e-002, -4.76101041e-003,
          9.64605063e-003, 1.65206343e-002, 1.42245814e-002,
          -1.10847000e-002, -1.12937419e-002, -6.12652907e-003,
          2.73233815e-003, 5.57441264e-003, 5.43552730e-003,
          8.00639484e-003, 1.26365302e-002, 6.70712860e-003,
          -1.28817407e-003, -1.70072969e-002, -1.67244989e-002,
          5.80495631e-004, -4.18634014e-003, -9.56850778e-003,
          -7.86872301e-003, -6.37383055e-005, 4.10438795e-003,
          4.87617124e-003, -1.13828015e-002, -1.79331694e-002,
          -5.91949886e-003, -1.02302078e-002, 2.42323079e-003,
          1.57691911e-002, 1.58978067e-002, 1.13902334e-002,
          -2.16637738e-002, -1.31261013e-002, -1.08984811e-002,
          -5.72586711e-003, -7.84126949e-003, 1.08054113e-002,
          1.51636871e-002, 7.02073565e-004, -1.23921996e-002,
          1.10760937e-002, -7.66207092e-003, 6.32915762e-004,
          8.13073665e-003, 4.56353649e-003, -5.88739640e-005,
          -6.24984410e-003, -1.34714423e-002, 2.23765732e-003,
          -9.53499414e-003, -1.61108132e-002, 4.29797173e-003,
          8.75160750e-003, 1.35609685e-002, 7.59775424e-003,
          -3.79485800e-003, -1.89717598e-002, -2.36004535e-002,
          -1.80280693e-002, -7.98218753e-005, -3.26950249e-004,
          3.88204935e-003, 6.45947456e-003, 2.40731053e-002,
          2.37778816e-002, 1.19450036e-002, -1.41792111e-002,
          -2.50124633e-002, -1.34070674e-002, -3.20908451e-003,
          3.46684689e-003, 5.26354788e-003, 2.53100395e-002,
          2.50197891e-002, 3.72654921e-003, -1.88296717e-002,
          -3.40103693e-002, -2.51211580e-002, 6.42805966e-003,
          2.16313060e-002, 2.32485756e-002, 1.42137529e-002,
          1.10474322e-002, 3.83089227e-003, -2.05837544e-002,
          -4.33753580e-002, -5.31432172e-003, 1.60373952e-002,
          2.27107517e-002, 1.85841601e-002, 1.14987474e-002,
          1.11014983e-002, 1.50969280e-002, -2.54958402e-002,
          -2.55492255e-002, -1.58305634e-002, 3.11233249e-004,
          1.13956640e-002, 9.78820585e-003, 2.50936374e-002,
          2.83016395e-002, 5.32537606e-003, -1.59591530e-002,
          -3.30008008e-002, -3.31375189e-003, -1.23374898e-003,
          9.18245222e-003, 1.37594119e-002, 1.31009798e-002,
          1.85210630e-002, 5.07305376e-003, -1.71830468e-002,
          -1.86665934e-002, 1.04776490e-002, 1.48989139e-002,
          1.29109081e-002, 1.44581487e-002, 8.01367126e-003,
          6.33112201e-003, 1.42690688e-002, -1.80702452e-002,
          2.02590344e-003, 1.19997468e-003, -8.04499630e-003,
          -1.62727684e-002, -9.61724017e-003, -4.91595175e-003,
          -3.90586955e-003, 7.44249905e-003, 8.83957837e-003,
          -1.57858618e-002, 2.62435782e-003, 2.60583381e-003,
          -3.52882803e-003, -1.29091088e-003, -4.66485322e-003,
          1.12799963e-003, 7.97048025e-003, 4.48905258e-003,
          5.27384458e-003, -7.87959807e-003, -1.39600579e-002,
          -1.81381796e-002, -1.15036126e-002, -1.13115963e-002,
          2.18773587e-003, 9.16017219e-003, 1.41335409e-002,
          9.91787203e-003, 4.13778052e-003, -9.52571817e-003,
          -1.91532429e-002, -1.67834479e-002, -9.70890559e-003,
          -1.50384288e-002, -1.82434928e-003, 1.24878818e-002,
          1.02634234e-002, 1.11399060e-002, -1.20769171e-002,
          -9.06493701e-003, -8.44910182e-003, -5.83209377e-003,
          -9.52361710e-003, 2.56427191e-003, 1.99020263e-002,
          1.93198416e-002, -9.94392484e-003, -1.64153669e-002,
          -1.65393259e-002, -1.16542159e-002, -9.14222095e-003,
          -1.79381261e-003, -1.96502521e-003, 2.48485822e-002,
          1.85402278e-002, -3.75832687e-003, -2.01676469e-002,
          -1.12576550e-002, -1.07224165e-002, -1.20662469e-002,
          -3.52540915e-003, 5.04339440e-003, 2.95259133e-002,
          1.28319010e-003, -9.98237822e-003, -1.29014598e-002,
          -9.16944444e-003, -5.31812897e-003, -1.17437344e-003,
          4.89266636e-003, 5.13235014e-003, 1.29612144e-002,
          8.60119984e-003, -1.74964890e-002, -1.21403718e-002,
          -1.21530900e-002, -1.43058673e-002, 5.65758348e-003,
          1.76316202e-002, 1.63979847e-002, 3.32480110e-002,
          2.51351274e-003, -1.30281532e-002, -1.29844602e-002,
          -8.93055461e-003, -3.58357141e-003, -6.47339690e-003,
          3.25120753e-003, 2.41356227e-003, 4.39345185e-003,
          1.41164884e-002, -1.54913962e-002, -6.77294517e-003,
          -3.99035821e-003, -2.05540541e-003, 4.12525889e-003,
          1.00605562e-002, 8.16476345e-003, 1.95289291e-002,
          -2.35671946e-003, -2.60349941e-002, -1.69021077e-002,
          -1.73879750e-002, -1.53427273e-002, -3.73172224e-003,
          2.48582044e-004, 2.96587753e-003, 2.31643151e-002,
          1.89784784e-002, 4.48770355e-003, -8.33061291e-004,
          -3.04667209e-003, -2.50088517e-003, -1.46513444e-003,
          -1.92968419e-003, -4.96816821e-003, 4.76951804e-003,
          4.88279108e-003, -1.86209455e-002, -1.25769302e-002,
          -5.20537142e-003, -6.06593862e-003, -2.06916453e-003,
          -4.11591819e-003, 1.15099421e-003, 8.54354538e-003,
          6.11741142e-003, -1.46820517e-002, -6.99653197e-003,
          -3.07971193e-003, -1.72689615e-003, 2.19693771e-004,
          2.33758445e-004, -1.27389340e-003, 1.74096171e-002,
          2.69134454e-002, 1.22760991e-002, -1.68092048e-003,
          1.87093532e-003, 1.02516904e-003, 8.64060654e-004,
          3.39739164e-003, -6.81734085e-003, -6.26561511e-003,
          9.16511007e-003, 1.39551004e-002, -3.76955280e-003,
          -7.61915173e-004, -2.89617863e-004, 2.77611311e-003,
          7.03702308e-003, -4.85818041e-003, -1.97611693e-002,
          4.20186063e-003, -6.39822846e-003, -7.21815927e-003,
          -4.90931561e-003, -1.65246893e-003, 1.88454392e-003,
          5.85246226e-003, 1.04813622e-002, 8.15583300e-003,
          -7.08724139e-003, -1.96626061e-003, -5.83565189e-003,
          -5.55520738e-003, -2.33248621e-003, 1.71671249e-003,
          5.56597346e-003, 1.02949338e-002, -7.94351380e-003,
          6.06670091e-003, 1.31583177e-002, 2.70838640e-003,
          3.01886676e-003, 9.47824738e-004, 4.80288127e-003,
          6.18117955e-003, 1.25092119e-002, -9.55802575e-003,
          5.49956039e-003, 4.01411066e-003, -4.90900362e-004,
          4.16634837e-003, 6.98196702e-003, 3.80148063e-003,
          7.68753653e-003, 1.97601169e-002, 2.11292063e-003,
          -1.20723406e-002, -2.64227204e-003, -2.38833041e-003,
          -9.35083837e-004, 1.58132578e-004, 2.39395304e-003,
          5.00139361e-003, 1.12395668e-002, -2.15965346e-003,
          -1.72662139e-002, -1.06935473e-002, -3.26672127e-003,
          -2.80215085e-004, 1.60384702e-003, -1.37543775e-005,
          4.78583155e-003, 1.76340975e-002, -8.68857279e-003,
          1.42146535e-002, 5.00514871e-003, 6.49101799e-003,
          4.89021791e-003, 1.02061564e-002, 3.59091093e-003,
          6.02352433e-003, 1.48006706e-002, 6.47881674e-003,
          -6.48541609e-003, 4.57175355e-003, 1.50258280e-002,
          9.74451937e-003, 8.81688949e-003, 3.52844293e-003,
          5.41038392e-003, 6.35260995e-003, 6.79284241e-003,
          -1.03137130e-002, -7.90845603e-003, 6.56075543e-004,
          3.31357267e-004, 4.82003856e-003, 1.07362506e-003,
          4.93329810e-003, 9.11275856e-003, -3.26989708e-003,
          -2.07355525e-002, -1.27160475e-002, 1.99877284e-003,
          1.18802418e-003, 1.01541886e-002, 4.13276581e-003,
          8.23305920e-003, 6.59927633e-003, 4.47112648e-003,
          6.37279265e-003, 1.43971359e-002, 4.74047754e-003,
          2.18576239e-003, 4.78507951e-003, 2.58311396e-003,
          3.70352762e-003, 2.19451217e-003, 6.50810078e-003,
          7.33609404e-003, 6.22966513e-003, -1.66703272e-003,
          -6.72347657e-003, 4.15128097e-003, 4.13982343e-004,
          -1.85236684e-003, 1.01382815e-004, 1.49463667e-002,
          -1.03610950e-002, -9.49760620e-003, 2.65476829e-005,
          -6.32210111e-004, 1.03964992e-002, 2.57496978e-003,
          6.46939455e-003, 4.70818300e-003, 6.38626562e-003,
          -1.35575626e-002, 8.84952373e-004, 4.83242050e-003,
          1.85593904e-003, 1.70709342e-002, 3.13347136e-003,
          2.81620584e-003, 3.15509527e-003, 3.95148946e-003,
          6.10627874e-004, -1.76525433e-002, -1.14224320e-002,
          -1.49270268e-002, 8.54089973e-004, 9.44359272e-005,
          6.14611385e-003, 1.29053742e-002, 1.35238823e-002,
          -9.97554883e-003, -2.94121914e-003, -6.16228767e-003,
          -4.26838314e-003, 5.11357933e-003, 3.85668245e-003,
          9.33210459e-003, 1.90666858e-002, 1.33616282e-002,
          -1.97199080e-002, -6.73301518e-003, 1.46000425e-003,
          1.55541918e-003, 1.85422041e-002, 5.46869170e-003,
          5.83837228e-003, 1.10144559e-002, -5.32404101e-003,
          -7.89070409e-003, 1.07930982e-002, 2.67803716e-003,
          -2.70335190e-003, 1.09537896e-002, 2.86112633e-003,
          3.40923131e-003, 8.00382532e-003, 6.14669360e-003,
          -1.53697608e-002, -2.51877792e-002, -8.66886787e-003,
          -9.38965939e-003, -6.17892388e-003, -1.03370054e-002,
          -1.69739798e-002, 1.19263325e-002, 1.75971594e-002,
          2.37904733e-005, -5.40255941e-003, -9.50699951e-003,
          -7.06678908e-003, -4.96056397e-003, -6.04260853e-003,
          -1.38107566e-002, 1.53421769e-002, 2.02964637e-002,
          8.12142715e-003, -1.66302845e-002, -3.60595877e-003,
          -1.22347462e-003, -1.13553945e-002, -2.03285646e-002,
          -1.88053809e-002, 1.40495189e-002, 3.34235579e-002,
          -1.50302803e-004, -7.52033014e-003, 6.29964843e-003,
          8.76274612e-003, -5.39422780e-003, -8.89939070e-003,
          -1.10617448e-002, 2.03194022e-002, 2.95695961e-002,
          2.89569772e-003, 3.64006264e-004, -1.14312526e-002,
          -8.90517700e-003, -7.58047402e-003, -1.02699101e-002,
          -1.30406301e-002, 1.18880970e-002, 1.44702001e-002,
          3.07659176e-003, -8.24274868e-003, -4.93865600e-003,
          -7.78989354e-003, -1.16732577e-002, -1.91016439e-002,
          -1.65060628e-002, 1.77186262e-002, 3.54133360e-002,
          -3.92171368e-003, -1.11582605e-002, -2.43662461e-003,
          3.80780606e-004, -1.05611496e-002, -1.30066006e-002,
          -1.00600496e-002, 3.31539940e-003, 1.44119663e-002,
          7.09159346e-003, -1.48315607e-002, -2.41856585e-004,
          -6.17282884e-003, -1.94765888e-002, -2.03118026e-002,
          -1.95916910e-002, -2.50207726e-003, 2.73832064e-002,
          1.28383515e-002, -6.48201676e-003, -6.50795503e-003,
          -4.36279364e-003, -6.94579817e-003, -1.24725141e-002,
          -8.48564878e-003, 1.60581768e-002, 3.44222337e-002,
          2.28963438e-002, -1.34197380e-002, -2.03978382e-002,
          -4.39020898e-003, 3.85159015e-004, -2.53786333e-003,
          -6.01734035e-003, 5.07126329e-003, 1.73072536e-002,
          2.92371307e-003, -1.30406544e-002, -1.02047613e-002,
          -8.66767019e-003, -1.32009787e-002, -1.35229938e-002,
          -1.83098428e-002, 6.75574876e-003, 2.28691362e-002,
          1.08619463e-002, -2.04721056e-002, -3.53191830e-002,
          -2.47826949e-002, -7.72731006e-003, -1.00636361e-002,
          -1.77831072e-002, -4.43865499e-003, 1.72744673e-002,
          3.29186022e-002, -5.22221252e-003, -2.27934513e-002,
          -8.22276808e-003, -3.01852520e-003, -2.34931053e-004,
          1.01100141e-002, 1.16029428e-002, 2.53341366e-002,
          -4.33613965e-003, 1.96835562e-003, -1.94608048e-002,
          -1.41453156e-002, -6.41008746e-003, 5.41437604e-003,
          1.33491345e-002, 7.92131294e-003, 6.96308957e-003,
          3.82671319e-002, -5.39932819e-003, -3.21455114e-002,
          -2.78415848e-002, -6.08474202e-003, -6.03625411e-003,
          -6.69434248e-003, -5.97359566e-003, 1.66150630e-002,
          -3.47742671e-003, -1.33990804e-002, -2.00539771e-002,
          -2.10590865e-002, -3.22211999e-003, -4.13137628e-003,
          -6.13272889e-003, -7.20986864e-003, -1.29352156e-002,
          -8.25872179e-003, 9.23019927e-003, -1.58274337e-003,
          1.18594224e-004, 5.94904926e-003, 1.98312886e-002,
          1.96607895e-002, 1.36947976e-002, 4.56090231e-004,
          -2.34814901e-002, 2.97349854e-003, 1.50483940e-003,
          -2.32944801e-003, 3.55276698e-003, 2.23931111e-002,
          2.86308862e-002, 1.99055262e-002, -9.45212319e-003,
          -7.49249756e-003, -2.44098939e-002, -9.54381749e-003,
          -8.53556767e-003, 5.30226110e-003, 9.42883082e-003,
          6.72764378e-003, 4.00136504e-003, 1.45428628e-003,
          -1.44620212e-002, -4.33337130e-002, -1.42734721e-002,
          -6.09058421e-003, 6.05378998e-003, 1.88559853e-002,
          2.28232611e-002, 1.54657671e-002, 1.12843942e-002,
          -2.20399182e-002, -4.80643474e-003, 4.65819496e-004,
          3.06570344e-003, 1.11404015e-002, 2.39055119e-002,
          2.08535008e-002, 5.96977212e-003, -1.47823440e-002,
          -1.22953700e-002, -8.67739692e-003, -9.44394525e-003,
          -1.13938737e-003, 1.44771840e-002, 1.32070296e-002,
          9.50347446e-003, -1.58208783e-003, -2.68451462e-004,
          -2.51165628e-002, -4.43668962e-002, -6.98267831e-004,
          3.91300209e-003, 1.36902677e-002, 1.94607526e-002,
          2.17158515e-002, 2.07811836e-002, 1.09267458e-002,
          -2.12760959e-002, -3.70220430e-002, -4.56993049e-003,
          4.60071303e-003, 1.60489250e-002, 1.92043688e-002,
          1.46422954e-002, 9.73367691e-003, 1.64184030e-002,
          3.54868779e-003, 1.75365002e-003, -8.99165496e-003,
          -1.30039277e-002, -5.04777767e-004, -1.41788227e-003,
          -3.41572240e-003, 1.16497010e-003, 1.28420964e-002,
          1.48408124e-002, -8.01004283e-003, -1.37691842e-002,
          -1.21279443e-002, -4.70460812e-003, -6.59628864e-003,
          -2.01060087e-003, 6.64323219e-004, 2.01642886e-002,
          -1.05654439e-002, -2.29202528e-002, -1.11324538e-003,
          -1.30467326e-003, 1.10489931e-002, 1.36824362e-002,
          6.17365073e-003, 6.51797839e-003, 1.70547739e-002,
          -5.28626144e-003, -1.64596587e-002, 2.02246616e-003,
          -7.02754420e-004, 9.94129106e-003, 1.96295860e-003,
          -2.83372961e-003, -6.73533930e-003, -3.32578877e-003,
          1.95398852e-002, -8.88697617e-003, -1.78387873e-002,
          -1.25251412e-002, -4.48573614e-003, -7.15292012e-003,
          -7.44550314e-004, -4.57382109e-003, 1.74726080e-002,
          2.56405119e-002, -4.49744333e-003, -1.80231594e-002,
          -1.13310944e-002, -1.12884706e-002, -7.30991364e-003,
          4.57329769e-003, 3.85809783e-003, 3.16116400e-002,
          8.00210517e-004, -4.99786809e-003, -1.61803328e-003,
          -3.29711824e-003, 5.84706664e-003, -6.81564095e-004,
          -1.79506722e-003, -4.31345124e-003, -1.08995764e-002,
          1.08827269e-002, -1.02314167e-002, -3.06112948e-003,
          -5.03933150e-003, 1.42073375e-003, 6.31710805e-004,
          8.90707504e-003, 2.03579618e-003, 8.26773047e-003,
          1.55877601e-002, -5.52664883e-003, -6.80239126e-003,
          -3.41140199e-003, -1.37354829e-004, -3.85294273e-003,
          1.04578398e-003, 2.89088697e-003, 2.05744952e-002,
          2.18152683e-002, 9.93069843e-004, -2.55551958e-003,
          1.74785487e-003, 6.00233814e-003, 1.36839098e-003,
          3.57851060e-003, 1.69450957e-002, 1.09233484e-002,
          -2.76700174e-003, -1.20143415e-002, -1.78283057e-003,
          -2.92106904e-003, 4.88357572e-003, -2.64670205e-004,
          -5.80509019e-004, 4.98733157e-003, 1.05866306e-002,
          -3.19135748e-002, -8.57271720e-003, 2.71641696e-003,
          1.25414378e-003, 1.09505169e-002, 7.09947024e-004,
          2.95624766e-003, 1.26394443e-002, -1.55087281e-002,
          2.48827934e-002, -1.27209211e-003, -5.34131145e-003,
          5.86148293e-004, 1.91001175e-003, 3.41871550e-004,
          3.84850171e-003, 1.50697241e-002, 1.27138449e-002,
          1.25561776e-002, -1.14053898e-002, 6.99885888e-004,
          4.81991592e-004, 5.49605535e-003, 8.93948076e-004,
          7.81360548e-003, 1.69711262e-002, 2.89374571e-002,
          -2.83279046e-002, 8.90164287e-004, 2.67243106e-003,
          1.94097392e-003, 9.06026084e-003, 1.79867900e-003,
          1.15083996e-002, 9.91408248e-003, -3.40735614e-002,
          -6.68983627e-003, 4.32998408e-003, 1.12132970e-002,
          2.38592620e-003, 9.45040397e-003, 3.39930365e-003,
          1.10676019e-002, -2.33155955e-003, -1.86578408e-002,
          -1.04946652e-002, -1.24425897e-002, -7.16824085e-004,
          -2.88951397e-003, 4.17732215e-003, 2.11563427e-003,
          8.39341618e-003, 1.98218822e-002, 2.72596963e-002,
          -1.58236064e-002, -1.54455216e-003, 4.76768566e-003,
          -3.35375732e-003, 4.23732417e-004, 3.07380455e-003,
          7.39109656e-003, 2.20587999e-002, 2.66168397e-002,
          -1.06472149e-002, 2.69813783e-004, 1.06627550e-002,
          1.77410827e-003, 2.47543911e-003, 2.83227558e-003,
          6.66906638e-003, -2.42368318e-003, -1.41658690e-002,
          -4.16465104e-003, 9.95662808e-003, 1.43344393e-002,
          1.62414752e-003, -2.26989432e-004, 1.76965585e-003,
          3.89967114e-003, 9.93571896e-003, 1.54210336e-003,
          -2.67911069e-002, -8.18415824e-003, 6.29390310e-003,
          5.47177260e-005, 4.05814778e-003, 3.85335903e-003,
          1.20712807e-002, 1.93829965e-002, 1.68590005e-002,
          -4.04337011e-002, -1.81470532e-002, 4.17926116e-003,
          1.28285086e-003, 9.51255765e-003, 4.30571893e-003,
          1.74068548e-002, 2.58598737e-002, -8.30192491e-003,
          -3.56121641e-003, 6.42088056e-003, 1.24697601e-002,
          1.96145964e-003, 4.39405162e-003, 4.67930775e-004,
          4.11978504e-003, 9.74050164e-003, 5.90000767e-003,
          -7.56562175e-003, -9.12155141e-004, 6.90172799e-003,
          1.38933992e-003, 1.91973126e-003, 1.03351369e-003,
          1.08661046e-002, 1.61120798e-002, 1.48009239e-002,
          -3.64134759e-002, -1.83289424e-002, 1.72134570e-003,
          1.66492967e-003, 9.55707300e-003, 4.09212336e-003,
          1.47621287e-002, 2.09207367e-002, -4.83035063e-003,
          -2.19739396e-002, -1.91286001e-002, -1.42994046e-003,
          8.66720162e-004, 1.31225800e-002, 5.37128374e-003,
          1.73351690e-002, 1.77972186e-002, 4.65738680e-003,
          -1.15858503e-002, -7.04865530e-003, 1.30688737e-003,
          1.49339507e-003, 1.49648543e-003, 1.51421619e-003,
          1.00653386e-002, 2.04559024e-002, 2.14366596e-002,
          -3.31033906e-003, -7.43090594e-003, 3.36734857e-003,
          2.48527015e-003, 6.72000414e-003, 3.86325363e-003,
          1.30858906e-002, 2.57101282e-002, 2.86561195e-002,
          -2.26558354e-002, -7.65479309e-003, -3.60239390e-003,
          -2.14988785e-003, 5.10431640e-003, 1.94733986e-003,
          3.79920192e-003, 1.07893189e-002, -2.62716808e-003,
          -1.98202319e-002, 1.09535102e-002, 5.22496179e-003,
          3.13367601e-003, 1.56722553e-002, 2.62199086e-003,
          5.31821838e-003, 1.15388818e-002, -9.84374806e-003,
          -1.29181650e-002, -2.71083438e-003, 4.33502253e-003,
          1.26613525e-003, 7.15183152e-004, 2.71654082e-003,
          6.49870979e-003, 2.46991981e-002, 1.78125463e-002,
          -1.10395486e-002, 1.73866898e-002, 6.80703949e-003,
          4.43452969e-003, 9.06366669e-003, 1.80427625e-003,
          7.81299546e-003, 2.55438443e-002, -1.49908825e-003,
          -1.81800202e-002, 2.03860682e-002, 1.21342754e-002,
          6.02013152e-003, 1.63994022e-002, 2.57926038e-003,
          3.43462708e-003, 7.28898915e-003, -1.98076461e-002,
          -2.06620824e-002, 8.66695400e-003, 9.22546349e-003,
          1.88319013e-003, 1.15731787e-002, 2.25239643e-003,
          1.57549302e-003, 4.81760036e-003, -7.87541084e-003,
          -9.52024292e-003, 3.05126514e-002, 8.37323349e-003,
          3.24375764e-003, 4.99300705e-003, 1.29351986e-003,
          4.87767765e-003, 1.24314679e-002, -1.07110888e-002,
          -1.70906186e-002, 4.13968368e-003, 3.75650777e-003,
          3.92088853e-003, 3.41013353e-003, 2.16569263e-003,
          4.03617974e-003, 1.81734879e-002, -6.69622701e-003 ]
   decision_functions:
      -
         sv_count: 1
         rho: -2.5293857048832130e-001
         alpha: [ 1. ]
         index: [ 0 ]
