%YAML:1.0
my_svm: !!opencv-ml-svm
   svm_type: NU_SVC
   kernel: { type:LINEAR }
   nu: 2.0000000000000001e-001
   term_criteria: { epsilon:2.2204460492503131e-016, iterations:100 }
   var_all: 3780
   var_count: 3780
   class_count: 2
   class_labels: !!opencv-matrix
      rows: 1
      cols: 2
      dt: i
      data: [ 0, 1 ]
   sv_total: 1
   support_vectors:
      - [ 8.36228672e-003, -3.96390678e-003, -9.12052952e-003,
          -8.21845047e-003, -2.35798419e-003, -3.26617388e-003,
          -4.75793332e-003, -9.24329855e-004, 1.55126872e-002,
          1.05916401e-002, -6.17046654e-003, -1.64712593e-002,
          -1.53268892e-002, -3.96750867e-003, 9.21292696e-004,
          1.72372488e-003, 1.48426006e-002, 2.06625480e-002,
          -1.97329931e-002, -1.51515296e-002, -5.44091919e-003,
          -5.07252431e-003, -3.51825519e-003, -1.13416347e-003,
          -5.39820176e-003, -2.52189394e-003, 1.10679399e-002,
          -1.42671540e-002, -1.64553169e-002, -1.10674771e-002,
          -1.29634431e-002, -2.05438235e-003, 1.10870649e-004,
          7.83650391e-003, 5.28265117e-003, 2.12498452e-003,
          3.33138066e-003, -3.67949647e-003, -1.31499181e-002,
          -6.48523681e-003, -1.62068324e-003, 6.58248755e-005,
          2.67438847e-003, 1.57910977e-002, 2.34570410e-002,
          -1.70595117e-003, -1.92778558e-003, -9.60877538e-003,
          -2.20163935e-003, 3.48704797e-003, 3.48946243e-003,
          2.14761868e-003, 1.07964892e-002, 1.26387887e-002,
          -1.92523766e-002, -4.33047954e-003, -1.14362882e-002,
          -5.35013108e-003, 4.61074058e-003, 9.97005263e-004,
          6.54684287e-003, 1.07059283e-002, 3.55131668e-003,
          -3.12119108e-002, -1.11110145e-002, -1.60458242e-003,
          1.44836819e-003, 1.11137368e-002, 5.27517824e-003,
          3.81876109e-003, 1.17317317e-002, 9.38553177e-003,
          6.78612059e-003, 3.08888033e-003, -3.67652671e-003,
          -1.74559501e-003, 2.79342476e-003, 5.60622523e-003,
          5.75300492e-003, 9.84627381e-003, 8.51444714e-003,
          -4.99991421e-003, 1.05139595e-002, 4.04047500e-003,
          4.75155655e-003, 6.72093267e-003, 6.10786397e-003,
          7.70529173e-003, 8.15113541e-003, -6.48244808e-004,
          -3.41654532e-002, -9.22970567e-003, 1.40407039e-002,
          8.57042428e-003, 7.48766121e-003, 9.04482231e-003,
          5.59331570e-003, 9.59368329e-003, -3.26690526e-004,
          -4.09935042e-002, 4.53559123e-003, 2.08015684e-002,
          1.76807884e-002, 1.16641652e-002, 1.30329682e-002,
          1.12851150e-002, 1.64281540e-002, -3.17017175e-002,
          -5.57580171e-003, 1.41085703e-002, 9.62692685e-003,
          9.51175019e-003, 6.79227849e-003, 3.73949390e-003,
          2.17955513e-003, -3.39886453e-003, -1.15795387e-002,
          1.64287817e-002, 2.37399172e-002, 1.11412155e-002,
          6.54516090e-003, 6.21107500e-003, 6.25576731e-003,
          4.97726211e-003, -4.70768660e-003, -2.85830884e-003,
          -5.18140458e-002, 1.85778830e-003, 2.06571221e-002,
          1.04897171e-002, 7.78934034e-003, 6.39699772e-003,
          7.89754279e-003, 5.48587600e-003, -3.92158292e-002,
          -1.46754282e-002, 6.57555042e-003, 1.74889434e-002,
          1.61483535e-003, 3.03683965e-003, 4.90631582e-003,
          5.62543375e-003, -8.24406464e-003, -1.60840116e-002,
          1.65896211e-002, 1.56104416e-002, 1.49981293e-003,
          -2.64674495e-003, -4.22825711e-003, -5.24979876e-003,
          -6.05927780e-003, -9.81469173e-003, 6.21854514e-003,
          2.57181562e-002, 1.78279784e-002, 8.39774217e-003,
          2.75266264e-003, -3.25042964e-003, -5.55018103e-003,
          -7.34389434e-003, -1.10687921e-002, 1.29033737e-002,
          5.04982332e-003, 7.37232994e-003, 3.66835535e-004,
          -6.77628675e-003, -5.18044271e-003, -6.58507692e-003,
          -1.19529024e-003, -1.66235194e-002, -3.98897007e-003,
          4.42129653e-003, 4.51919623e-003, -4.79862932e-003,
          -4.73705446e-003, -4.37154714e-003, -9.34247114e-003,
          -1.42076286e-003, -8.29940476e-003, 3.40821658e-004,
          1.91238038e-002, 1.37203345e-002, 9.00922995e-003,
          2.38718116e-003, 3.31329677e-004, 4.44098026e-004,
          -6.30736817e-003, -1.65593426e-003, 9.75680072e-003,
          9.25519876e-003, 5.61135262e-003, 5.17828297e-003,
          1.48832938e-003, -6.53869356e-004, -2.69722147e-003,
          -2.06690724e-003, 7.24625448e-003, 1.17403110e-002,
          -1.62651564e-003, -1.44082727e-002, -7.83189293e-003,
          -9.30584595e-003, -3.99361039e-003, -6.66555017e-003,
          -3.19491047e-003, -6.88881380e-004, 6.12223987e-003,
          -6.54552691e-003, -3.07842512e-002, -1.06644221e-002,
          -3.72484396e-003, -1.69953646e-003, -5.64305345e-003,
          4.77558887e-003, 1.00218421e-002, 7.41283363e-003,
          1.38655184e-002, 1.13681844e-002, 8.40868894e-003,
          1.22250267e-003, -3.71069903e-003, -7.21785333e-003,
          -5.04746195e-003, 1.87500089e-003, 2.20968883e-004,
          1.40680159e-002, 1.03933578e-002, 7.32398266e-003,
          1.83636928e-003, -6.80348370e-004, -3.74643411e-003,
          -5.39996894e-003, 2.24502943e-003, -2.14671018e-003,
          -1.57827307e-002, -1.93190365e-003, 4.52418718e-003,
          2.23079463e-003, -2.88708555e-003, -3.44123528e-003,
          9.88590065e-003, 1.39924884e-002, -1.05184028e-002,
          -1.59395970e-002, -3.05226934e-003, 1.42544210e-002,
          5.90196485e-003, 3.29638598e-003, 6.84247958e-003,
          1.76601205e-002, 4.04841360e-003, -2.43134964e-002,
          1.31975207e-002, 1.06814653e-002, 8.65587220e-003,
          1.53962744e-003, 6.40000391e-004, -2.60261091e-004,
          1.03498402e-003, 1.23466982e-003, -2.30544619e-003,
          1.70703381e-002, 1.41245574e-002, 3.04555683e-003,
          1.80918036e-003, 1.73832069e-003, 6.75465621e-004,
          3.40356026e-003, -5.39868372e-003, -1.67791024e-002,
          -8.71522352e-003, -1.01913838e-002, 4.57077241e-003,
          -1.80420582e-004, 3.69974342e-003, 1.24795083e-002,
          2.60075629e-002, 9.39262379e-003, -1.78538729e-002,
          1.07519357e-002, -3.18900845e-003, -1.35812452e-002,
          -4.85914946e-003, -4.93306085e-004, 6.83306390e-003,
          1.56763978e-002, 1.15561043e-003, -2.38656197e-002,
          1.88646708e-002, 1.69145390e-002, -2.62785656e-003,
          -6.35796692e-004, 7.16079841e-004, 1.13488210e-003,
          1.54971529e-003, -1.10422280e-002, -1.30894193e-002,
          2.75330935e-002, 2.74932310e-002, 8.35479295e-004,
          -1.24758040e-003, -3.82074248e-003, 4.11983521e-004,
          -3.59187415e-003, -1.54043995e-002, 3.35080491e-004,
          7.23526115e-003, -6.45779492e-003, -1.72261465e-002,
          -5.87990228e-003, 6.58797682e-004, 4.26633516e-003,
          8.59924685e-003, -4.90236422e-003, -2.45147869e-002,
          1.55637146e-003, -2.18694890e-003, -9.46606975e-003,
          -5.61067928e-003, -8.14620173e-004, -1.21097146e-004,
          -3.31346411e-003, -1.02535440e-002, -1.57257169e-002,
          2.55186819e-002, 1.97011530e-002, 1.70552789e-003,
          6.73550589e-004, -2.20367196e-003, 5.15149964e-004,
          -2.89336103e-003, -9.53325350e-003, 8.59563984e-003,
          2.35010404e-002, 4.00364352e-003, 3.24482424e-003,
          -1.59640890e-003, -4.00317134e-003, 2.31583890e-005,
          -3.66197200e-003, -6.23228587e-003, 1.59202665e-002,
          -6.20984053e-003, 2.00145389e-003, -6.04229700e-003,
          -2.97278399e-003, -4.05424507e-003, -6.76553929e-003,
          -1.56616711e-003, -1.02202233e-004, -5.07695461e-003,
          -3.18042897e-002, -1.12064574e-002, -3.69167607e-003,
          -1.13627349e-003, -3.40770534e-003, -6.43418636e-003,
          1.02265808e-003, 3.12241027e-003, -1.05700688e-002,
          2.85719857e-002, 3.47447279e-003, -3.38396546e-003,
          -2.75217718e-003, 1.83642399e-003, -1.20460812e-003,
          -4.16448759e-003, -5.62640559e-003, 1.19964480e-002,
          3.53139751e-002, 9.74052760e-004, -1.03557622e-002,
          -3.01806768e-003, 4.54050349e-003, -2.75459629e-003,
          -3.33696790e-003, -7.73848314e-003, 1.15662841e-002,
          -2.78613605e-002, -1.25308400e-002, -5.96004073e-003,
          -1.16438861e-003, 3.76050989e-003, -2.04460160e-003,
          -2.14317185e-003, 2.05580331e-003, -2.29965877e-002,
          -2.05502547e-002, -1.43298451e-002, -3.20488052e-003,
          1.83935335e-003, 1.01528335e-002, 3.28162778e-003,
          -2.52356031e-003, -7.57969590e-003, -2.22382192e-002,
          3.44188251e-002, -1.42575393e-003, -9.17030498e-003,
          -2.11594417e-003, 5.10513899e-004, -2.81853974e-003,
          -2.82723317e-003, -8.39666463e-003, 2.02524904e-002,
          3.74690779e-002, -5.18291816e-003, -8.78341123e-003,
          -3.85088916e-003, -6.89879991e-003, -4.43276204e-003,
          -6.06291136e-003, -1.64115559e-002, 2.80968621e-002,
          -1.21889487e-002, -1.86270773e-002, -3.48381791e-003,
          3.11729877e-004, 4.05410724e-003, -3.46799172e-003,
          -9.65032633e-003, -1.51807042e-002, -6.68683043e-003,
          -1.13975760e-002, -3.15616839e-002, -1.19235311e-002,
          -3.22709442e-003, -2.17984174e-003, -9.15854611e-003,
          -1.06589645e-002, -2.09848210e-002, 9.09567904e-003,
          3.31059881e-002, -8.25697929e-003, -3.78838787e-003,
          -4.99509135e-003, -1.17477784e-002, -5.13467425e-003,
          -8.05148203e-003, -1.06684444e-002, 4.28536572e-002,
          1.22827897e-002, -7.15996837e-003, -1.48180244e-003,
          -3.39556253e-003, -1.04357665e-002, -4.74565011e-003,
          -5.54282311e-003, 3.01836338e-003, 3.43825556e-002,
          -1.82678550e-002, -2.56632380e-002, -6.34231884e-003,
          -4.53644479e-003, 9.96292583e-005, -4.72987490e-003,
          -2.13240669e-003, -1.23106353e-002, 4.69403435e-003,
          -1.39631741e-002, -1.51229035e-002, 1.09591521e-003,
          -2.57626548e-003, -6.48815557e-003, -4.04030271e-003,
          -8.74477671e-004, -2.58916058e-003, 3.64728365e-003,
          -4.09259723e-004, -3.66866263e-003, -1.54453064e-005,
          -1.16268406e-003, -7.62071367e-003, 2.19376961e-004,
          5.51794074e-004, 8.34750291e-003, 1.80108752e-002,
          7.32855359e-003, -2.18010251e-003, -5.19542800e-006,
          -3.82649072e-004, -5.43742720e-003, -7.37854920e-004,
          -2.13860782e-004, 2.52276799e-003, 9.18423478e-003,
          -1.14360508e-002, -7.10671023e-003, 3.89539823e-003,
          1.00573490e-003, -4.53777332e-003, -1.92188984e-003,
          -4.19086544e-003, -3.22340336e-003, 4.57012700e-003,
          -2.58234721e-002, -2.26412918e-002, 3.13534448e-003,
          2.37217825e-003, 4.68879659e-003, 1.18434418e-003,
          2.64629780e-004, 2.65816902e-003, 6.28806232e-003,
          1.22745549e-002, 1.44533394e-003, 6.09596667e-004,
          9.10326431e-004, 1.86049042e-003, -4.73210076e-003,
          -2.35640095e-003, -2.86884769e-003, 1.40305432e-002,
          1.12657463e-002, 8.48208321e-004, 3.09224444e-004,
          -4.49256258e-005, -9.65351821e-004, -6.56515732e-003,
          -7.55989086e-003, -5.02173696e-003, 1.24133900e-002,
          -1.95363592e-002, -2.05988456e-002, 6.47999928e-004,
          9.59581928e-004, 8.20800290e-003, 1.16803928e-003,
          3.86001659e-003, 2.91236979e-003, 1.00716371e-002,
          -2.41554584e-002, -1.85448918e-002, 1.65110826e-003,
          7.03288591e-004, 9.13363136e-003, 2.03024363e-004,
          2.30601500e-003, -1.14850129e-003, -1.15218638e-002,
          -1.62328333e-002, -1.25710880e-002, 2.78305029e-003,
          2.27435189e-003, 1.27266522e-003, 2.08745105e-003,
          9.96309245e-005, 3.43923527e-003, 6.86848676e-003,
          -5.99999120e-003, -1.06250448e-002, -2.57932435e-004,
          6.70048932e-004, 4.16367501e-003, 1.43722759e-003,
          5.88005874e-003, 2.77605286e-004, -5.02143241e-003,
          1.48131489e-003, -1.43884979e-002, 4.66230744e-003,
          4.04504314e-003, 5.50738443e-003, 1.19383298e-002,
          7.75636081e-003, 7.89085025e-005, -9.94300121e-004,
          -1.31259859e-002, -4.81130410e-004, 7.14122271e-003,
          1.19761610e-002, 1.66854225e-002, 1.20775364e-002,
          1.34098493e-002, 4.60679922e-003, -2.02229852e-003,
          -9.85634048e-003, 7.67981401e-004, -9.23798536e-004,
          3.25629907e-003, 1.07578468e-002, 4.15420253e-003,
          6.89913426e-003, 3.46513581e-003, -6.66510314e-004,
          -2.30793729e-002, -1.02923587e-002, 1.38743687e-003,
          6.13929238e-003, 1.18080396e-002, 6.27915468e-003,
          7.47649558e-003, 7.00219302e-003, 1.41384900e-002,
          -1.89521424e-002, -9.01724398e-003, 9.85706225e-003,
          1.16811153e-002, 1.89537443e-002, 9.45289247e-003,
          1.25310337e-002, 1.05875731e-002, 4.12694598e-003,
          -2.62408443e-002, -1.65758617e-002, 1.63236782e-002,
          1.49677694e-002, 1.96739901e-002, 1.09873544e-002,
          1.11307185e-002, 4.03817277e-003, 2.07481929e-003,
          -3.44196931e-002, -7.69767212e-003, 2.04539523e-002,
          1.36894044e-002, 1.37855280e-002, 9.35489777e-003,
          7.83454161e-003, 8.65242351e-003, 3.42132407e-003,
          -3.62559557e-002, -4.06855438e-003, 2.96832565e-002,
          1.60260443e-002, 1.77350808e-002, 1.25256479e-002,
          1.30650084e-002, 1.98081136e-002, -1.24138417e-002,
          -3.54732983e-002, -1.60567630e-002, 2.58257836e-002,
          1.85336862e-002, 1.84906442e-002, 1.23125352e-002,
          1.27865188e-002, 6.18241820e-003, -2.01362348e-003,
          -3.06426380e-002, -2.08559185e-002, 2.70898715e-002,
          1.83623824e-002, 1.98462158e-002, 1.23223597e-002,
          1.54524138e-002, 1.27391126e-002, -2.59368005e-003,
          -3.89187783e-002, -7.82036781e-003, 1.86631866e-002,
          7.96778500e-003, 1.22656673e-002, 6.36721263e-003,
          8.87931976e-003, 1.54253179e-002, -1.16182948e-002,
          -1.12385321e-002, -1.83230964e-003, 1.46434698e-002,
          2.95958016e-003, 8.67061783e-003, 6.47700764e-003,
          1.15288189e-002, 8.73728096e-003, 1.01392344e-002,
          -3.33328918e-002, -1.84501912e-002, 1.42935589e-002,
          8.84878449e-003, 1.30669270e-002, 1.00263637e-002,
          8.48527439e-003, 9.44323000e-003, 3.28203384e-003,
          -1.65270455e-002, -5.61391655e-003, 1.97261404e-002,
          8.58054310e-003, 1.60571914e-002, 1.18148718e-002,
          1.74579564e-002, 1.36109749e-002, -6.37580932e-004,
          9.47250053e-003, 1.05608627e-002, 5.10795973e-003,
          8.42201640e-004, 5.99099696e-003, 3.53947468e-003,
          8.93681124e-003, 1.49000215e-003, 3.08126607e-003,
          2.65981001e-003, 3.74258379e-003, -2.72901077e-003,
          -3.02035781e-003, 5.63080981e-003, 8.91640666e-004,
          1.11446409e-002, 6.02170639e-003, 8.73399619e-003,
          -2.18973495e-002, -4.30994993e-003, 4.36866377e-003,
          2.68602814e-003, 1.26682809e-002, 9.30181053e-003,
          1.57761574e-002, 1.20740933e-002, -1.29794925e-002,
          -1.92271136e-002, 6.76850881e-003, 4.96150693e-003,
          1.67595618e-003, 9.50252730e-003, 5.63803781e-003,
          1.41327698e-002, 1.24559477e-002, -2.46229162e-003,
          -7.28569692e-003, -1.50795709e-002, -6.92650722e-003,
          -5.97831141e-003, 1.98909547e-003, 7.72146814e-005,
          2.49739084e-003, 8.41181725e-003, 3.50820413e-003,
          -8.36493261e-003, -5.97269367e-003, 2.78090895e-003,
          3.12245730e-003, 3.77937360e-003, 2.42113578e-003,
          2.73292442e-003, 1.44148674e-002, 6.16699271e-003,
          -2.20635794e-002, -3.28671536e-003, 8.66270345e-003,
          6.25999132e-003, 5.58862230e-003, 1.80457835e-003,
          1.73330749e-003, 2.47765169e-003, -1.04033761e-003,
          -1.95371881e-002, 1.14880479e-003, 1.63258184e-002,
          1.14687001e-002, 3.68115050e-003, -1.32012018e-003,
          2.70325132e-003, 8.85817129e-003, 2.45228829e-003,
          -1.69136245e-002, -1.41943595e-003, 1.58203219e-003,
          3.12474696e-003, 9.94457165e-004, 2.97314045e-003,
          9.36541241e-003, 1.51608903e-002, -1.00462819e-002,
          -4.10666876e-003, -5.40719787e-003, 5.42277005e-003,
          6.51985267e-003, 3.70031106e-003, 9.68014076e-003,
          1.74681321e-002, 4.26836265e-003, -1.62739959e-002,
          -2.07027365e-002, -3.53838736e-003, 7.44009344e-003,
          -2.13609054e-003, -5.48997382e-003, 2.43988819e-003,
          1.30952466e-002, 1.14958510e-002, -6.00687368e-003,
          -5.16490871e-003, -5.40453847e-003, 5.05335862e-003,
          6.24534581e-003, 2.45885691e-003, 1.16943317e-002,
          1.86637472e-002, 8.73619504e-003, -1.47417588e-002,
          -2.12191814e-003, -8.82825721e-003, -1.64501648e-003,
          3.20138736e-003, 5.01944404e-003, 8.75932630e-003,
          1.79259982e-002, 1.03625571e-002, -1.61199495e-002,
          3.98890860e-003, -5.31870686e-003, -1.08995223e-002,
          -1.16646464e-003, 2.66310456e-003, 1.00698113e-003,
          1.07540879e-002, 1.06212255e-002, -1.17057934e-002,
          9.60186590e-003, -6.88182656e-003, 2.77465704e-004,
          1.14408508e-002, 6.65816944e-003, 4.53685736e-003,
          1.07726753e-002, 8.29836261e-003, -3.30792554e-003,
          -4.73052962e-004, -3.54885170e-003, 2.31757862e-004,
          7.30627961e-003, 8.00294150e-003, -1.61823828e-003,
          3.15488898e-003, 6.11276552e-003, -4.74955840e-003,
          1.28189037e-002, 3.63268610e-003, -5.13723725e-003,
          -5.68311487e-004, 2.54079560e-003, 6.16822043e-004,
          4.36084345e-003, -7.00174773e-004, -1.06471656e-002,
          1.15312566e-003, 7.94564374e-003, -3.17531434e-004,
          9.57887562e-004, 2.91458261e-003, -2.90153222e-003,
          -4.93306061e-003, -5.16860792e-003, -7.66123692e-003,
          9.82543826e-003, 2.83208513e-003, 7.03525497e-003,
          7.75755895e-003, 3.13333399e-003, -2.10252870e-003,
          -2.55632796e-004, -1.42767024e-003, -1.05832971e-003,
          2.47915421e-004, 9.05346870e-003, 1.01287477e-002,
          1.29594561e-002, 4.43525426e-003, 4.86684637e-003,
          -5.57655760e-004, -7.49218557e-003, -8.17158632e-003,
          -1.32264313e-005, 8.87052435e-003, 1.26456682e-004,
          2.31493567e-003, 2.63960520e-003, -6.75006490e-003,
          -2.23043328e-003, 5.22439554e-003, -1.35944202e-003,
          7.88254722e-004, 2.08123005e-003, -1.65936584e-003,
          1.91274611e-003, 3.13263317e-003, -7.46511016e-003,
          -3.31107673e-004, 2.19257944e-003, -2.83651194e-003,
          1.49718381e-003, 1.36912232e-002, 7.02645909e-003,
          1.16222613e-002, 9.69929621e-003, 3.07237334e-003,
          2.26111338e-003, 1.81101286e-003, -6.62296638e-003,
          4.01691487e-003, 2.06309673e-003, -1.73795829e-003,
          9.04747285e-003, 1.11088194e-002, 9.53566632e-004,
          -6.56553404e-003, -2.04349519e-003, -1.19405137e-002,
          6.99621718e-003, 3.69756622e-003, -5.30005782e-004,
          4.65520978e-004, 2.39399076e-003, -3.78189213e-003,
          -7.43771670e-003, -6.13770448e-003, -5.05031028e-004,
          4.26440034e-003, -6.26089750e-004, -2.74644559e-003,
          -3.42029682e-003, 7.19466771e-004, 3.87571193e-003,
          -2.52928236e-003, -4.18451475e-003, 1.78261905e-003,
          1.15771480e-002, -4.88152169e-003, -3.74616170e-003,
          1.29125733e-003, 8.98767821e-003, 7.24010984e-004,
          -3.99966678e-003, -1.03983199e-002, 5.51877776e-003,
          1.98573824e-002, 8.51959456e-004, -5.53571386e-003,
          -6.85795397e-003, -1.31472922e-003, 4.28869901e-003,
          -1.46512029e-004, -1.42988423e-002, 3.08193453e-003,
          -1.00595108e-003, -6.96256757e-004, 7.24174955e-004,
          -2.22356501e-003, 2.83992803e-003, 1.13593496e-003,
          1.10599783e-003, -4.87862744e-005, -2.47703749e-003,
          -3.53315030e-003, -7.82530475e-003, 1.06519507e-003,
          -1.39041129e-003, 1.57495972e-003, -1.92390382e-003,
          2.66453391e-003, -1.39375415e-003, 7.20426068e-003,
          2.11354420e-002, 9.25622135e-003, -3.42299440e-003,
          -9.13785398e-003, -1.59970718e-003, 8.37746717e-004,
          -7.87333120e-003, -1.75510943e-002, -4.78166679e-004,
          1.26005560e-002, -1.62932090e-002, -6.85822545e-003,
          -7.89759774e-003, -2.76842737e-003, -2.20484543e-003,
          -4.87526739e-003, -9.11681820e-003, 1.56054646e-002,
          -8.47170223e-003, 2.51288671e-004, 5.41825313e-003,
          5.69699507e-004, 4.33317013e-003, -7.60902709e-004,
          3.38255451e-003, -2.75276229e-003, -8.19765776e-003,
          3.60434735e-003, 9.59421508e-003, 8.14250391e-003,
          1.05954823e-003, 2.08072737e-003, -2.07534293e-003,
          -3.69236572e-003, -9.83594917e-003, -4.10465850e-003,
          8.54267459e-003, -2.01319512e-002, -2.35161651e-003,
          -3.68119637e-003, -4.81158233e-004, -2.81962147e-003,
          -1.25991844e-003, 3.42293316e-003, 5.76065201e-003,
          -1.02101499e-003, -2.22809482e-002, -4.55453387e-003,
          -1.47481158e-003, 2.75986386e-003, -2.40035541e-003,
          -4.77744406e-003, -7.86001765e-005, 2.23093107e-003,
          1.39868697e-002, 3.04950145e-003, 6.55771699e-003,
          -2.84354814e-004, 3.07886139e-003, -2.36095884e-003,
          -5.35207754e-003, -2.63959426e-003, 2.11586449e-002,
          4.27145162e-004, -1.77666582e-002, 1.17316784e-003,
          1.13297792e-004, 7.78872333e-003, 8.68149218e-004,
          3.61913163e-003, 5.18085854e-003, 2.07427926e-002,
          -3.47555405e-003, -2.26619150e-002, -1.02290530e-002,
          -3.98494955e-003, 1.89546426e-003, -6.90227002e-003,
          -4.19352110e-003, 4.13089152e-003, 2.02013794e-002,
          -1.95622947e-002, -3.00826617e-002, -1.30843399e-002,
          -4.28762846e-003, 4.01069317e-003, -6.67710649e-003,
          4.97796666e-003, 6.35456294e-003, 1.20937014e-002,
          -1.05550112e-002, -2.32476369e-002, 1.98765006e-003,
          7.89121899e-004, 8.17181822e-003, 1.54944579e-003,
          7.51042739e-003, 1.05107706e-002, 1.87764689e-002,
          -1.67137794e-002, -1.23865809e-002, 6.38744188e-003,
          1.78053067e-003, 9.74106137e-003, 2.28181947e-003,
          8.37152358e-003, 1.19884266e-002, 4.19490319e-003,
          -2.43829489e-002, -2.53511723e-002, -1.98581512e-003,
          -1.63088576e-003, 4.19809576e-003, -5.10205049e-004,
          1.19670816e-002, 1.39922509e-002, 1.05953002e-002,
          -2.70445962e-002, -1.26070147e-002, 1.30931102e-003,
          -4.07166342e-004, 5.34732919e-003, 6.34898292e-003,
          1.60620585e-002, 1.86389722e-002, 4.80227824e-003,
          7.15341419e-004, -1.02781858e-002, -4.33476036e-003,
          -3.79446754e-003, 3.00462521e-003, 8.50614812e-003,
          7.93126225e-003, 1.95412082e-003, -3.76730197e-004,
          -1.14791878e-002, -9.47004650e-003, 3.79725453e-003,
          4.70727868e-003, 8.00161995e-003, 8.83752760e-003,
          7.94143323e-003, 7.76721118e-003, 3.35109676e-003,
          -2.76425690e-003, -3.18778446e-003, 1.57026958e-003,
          -7.21786218e-003, -5.93083119e-003, 7.46932114e-004,
          4.22395999e-003, 1.45197902e-002, 1.11482926e-002,
          1.18038645e-002, -4.11611143e-003, 4.99800127e-003,
          -2.46526883e-003, -5.92632964e-003, -8.84831185e-004,
          6.58050785e-003, 1.95468944e-002, 7.45928986e-003,
          -2.25648805e-002, -1.36807486e-002, 1.16006834e-002,
          7.27043860e-003, 1.15541425e-002, 5.17077651e-003,
          1.57775078e-003, 6.98080286e-003, 9.55036003e-003,
          -3.86708789e-002, -1.33354031e-003, 1.99712720e-002,
          1.20672910e-002, 1.56380050e-002, 3.87228769e-003,
          -2.27253605e-003, -1.91203936e-003, -9.69035923e-003,
          7.78786419e-003, -6.20348903e-004, 6.97077624e-003,
          3.28132464e-003, 1.74608605e-004, -3.16180219e-003,
          2.12346227e-003, 1.21550700e-002, 9.92609002e-003,
          -9.20605473e-003, 9.09588940e-004, 1.21073760e-002,
          1.16527351e-002, 1.17476089e-002, 1.32339715e-003,
          8.85151268e-004, 1.62785091e-002, 2.56518624e-003,
          -3.82368155e-002, -2.88875168e-003, 2.66835857e-002,
          1.79858133e-002, 1.31816948e-002, 5.21549862e-003,
          5.91596030e-003, -2.17780471e-003, -1.33241406e-002,
          -4.53292504e-002, -2.73577552e-002, 2.45035291e-002,
          1.07865045e-002, 9.71844699e-003, 8.76317546e-003,
          9.79397539e-003, 4.96042368e-004, -1.18066138e-002,
          -1.86112225e-002, -2.37080400e-004, 2.08984483e-002,
          1.44730546e-002, 1.03769386e-002, 6.75819768e-003,
          1.00609623e-002, 1.74490176e-002, 1.71084609e-003,
          -1.55305741e-002, -1.20843360e-002, 1.77866500e-002,
          1.90474205e-002, 2.18664259e-002, 2.09875610e-002,
          2.49073766e-002, 1.56343319e-002, -6.97584404e-003,
          -4.71742041e-002, -2.39236262e-002, 1.45569015e-002,
          8.00442789e-003, 8.98975506e-003, 1.12992246e-002,
          7.18305632e-003, -2.47524725e-003, -7.89990276e-003,
          -3.17961425e-002, -1.11319479e-002, 1.42313261e-002,
          8.55358038e-003, 1.07045583e-002, 1.31365033e-002,
          1.11588938e-002, -5.19854994e-003, -1.79662276e-002,
          -1.22422855e-002, 2.59520090e-003, 1.26958275e-002,
          1.24765635e-002, 1.89160574e-002, 2.26698201e-002,
          2.41800211e-002, 1.09704882e-002, -2.47503258e-003,
          -8.73947795e-003, 3.04188835e-003, 1.24750622e-002,
          1.15798786e-002, 1.65506955e-002, 2.30153129e-002,
          2.36613937e-002, 8.34341906e-003, -1.25424387e-002,
          -2.37898547e-002, -2.77625863e-003, 3.53454310e-003,
          3.62521107e-003, 4.60764347e-003, 1.12666404e-002,
          1.01143979e-002, 1.82894967e-003, -2.19239891e-002,
          -1.07496716e-002, 2.79226271e-003, 1.68498196e-002,
          9.41024814e-003, 5.93964336e-003, 1.24269649e-002,
          8.57807416e-003, 3.14753596e-003, -1.32107818e-002,
          -2.01792233e-002, -5.49631519e-003, 3.63053358e-003,
          1.01394700e-002, 1.56757999e-002, 2.25063376e-002,
          1.71359908e-002, 3.17674596e-003, -1.32035911e-002,
          -2.66821142e-002, -8.59553739e-003, 1.59423612e-002,
          2.39243917e-002, 2.68848073e-002, 2.70244461e-002,
          2.08004862e-002, 4.68226615e-003, -9.06413328e-003,
          -1.69209726e-002, -7.04212673e-003, 1.71256214e-002,
          1.30652422e-002, 5.16976370e-003, 1.26731989e-004,
          -1.04271159e-004, 4.82527399e-003, -1.02776065e-002,
          -1.98736861e-002, -3.03328270e-003, 1.45208910e-002,
          5.84706292e-003, 1.48898317e-003, -1.48509804e-003,
          3.12301796e-003, 6.46395003e-003, -7.11658504e-003,
          -2.28074417e-002, -9.06233676e-003, 1.37718786e-002,
          1.59009248e-002, 1.80040784e-002, 1.37220239e-002,
          7.44499546e-003, 3.33968690e-003, -9.40673053e-003,
          -2.58843899e-002, 9.13237222e-004, 1.62092242e-002,
          1.28716929e-002, 7.27604609e-003, 8.85781925e-003,
          -1.98817742e-003, 7.77650671e-003, -1.16135208e-002,
          -1.52355740e-002, 1.12848170e-003, 6.09990023e-003,
          -1.71998050e-003, -5.69646480e-003, 5.69388364e-003,
          9.33591090e-003, 6.07520621e-003, -1.70282964e-002,
          -5.33908000e-003, 1.37465103e-002, 9.71094612e-003,
          2.56142067e-003, 9.89965629e-004, 7.82394502e-003,
          5.62170753e-003, 1.13429027e-002, -1.08288266e-002,
          -1.81197599e-002, -1.44744277e-004, 3.48735531e-003,
          5.98796969e-003, 3.43992538e-003, 1.12674404e-002,
          2.15982320e-003, 5.18835243e-003, -1.69388521e-002,
          -9.78207402e-003, 1.12622762e-002, 7.43665174e-003,
          -5.28628239e-004, 5.72828669e-003, 9.26426984e-003,
          1.86752272e-003, 4.24634293e-003, -1.15855336e-002,
          6.58773538e-003, 8.40881560e-003, 5.00860438e-003,
          5.79644972e-003, 2.10114566e-004, -1.14860048e-003,
          4.35130065e-003, 8.64690077e-003, 1.18372440e-002,
          -8.07217148e-004, -3.44918622e-003, 3.54512618e-003,
          5.17127244e-003, 1.60400616e-003, 1.30954012e-003,
          -4.09418775e-004, -3.00957751e-003, -7.81294610e-003,
          -5.77619765e-003, 8.13825894e-003, 1.54864071e-002,
          6.27177022e-003, 4.85605560e-003, -9.38409823e-004,
          -4.63053351e-003, -1.23468915e-003, -7.97441881e-003,
          5.84294670e-004, 1.82599307e-003, 1.71868410e-002,
          1.04355682e-002, 3.01944185e-003, -2.21736077e-003,
          -1.09448319e-003, -1.30720092e-002, -1.63103286e-002,
          8.24150257e-003, 1.22353071e-002, 1.01416754e-002,
          5.13657182e-003, 1.09668972e-003, 4.70233441e-004,
          -1.32229610e-003, -1.34181539e-002, -4.84246947e-003,
          1.17017262e-004, 1.16009712e-002, 1.06509682e-002,
          1.10400505e-002, 2.96780164e-003, 4.34971973e-003,
          -9.32723633e-004, -1.56560261e-002, -1.19894370e-002,
          8.35894607e-003, 1.59107037e-002, 1.52647682e-002,
          9.42414347e-003, 4.35640104e-003, -1.31876883e-003,
          -1.06932584e-003, -1.11593176e-002, -1.45435026e-002,
          7.98340049e-003, 1.12750679e-002, 6.65054284e-003,
          5.64371422e-003, 5.96241932e-003, 6.19545695e-004,
          -2.34117289e-003, -1.65208951e-002, -2.16457006e-002,
          -4.18368913e-003, 5.04553365e-003, 9.40082315e-003,
          1.02689853e-002, 6.50920533e-003, 4.00407845e-003,
          4.35617985e-003, 4.76876041e-003, -1.33805098e-002,
          1.22083630e-003, 5.23715373e-003, 8.41276720e-003,
          6.17075013e-003, 4.29917499e-003, -2.77257478e-003,
          -1.09733632e-002, -4.36675502e-003, -1.01098130e-002,
          5.55920415e-003, 1.00497222e-002, 1.14806956e-002,
          4.83619934e-003, 7.42526120e-003, 2.18735286e-003,
          1.99411274e-003, -6.97384728e-003, -1.22802993e-002,
          -5.56515250e-003, 1.47482529e-002, 1.83628127e-002,
          5.36169903e-003, 2.07693269e-003, -3.52593888e-005,
          -8.58374755e-004, -2.91940989e-003, -1.43007031e-002,
          1.74129196e-002, 8.95144418e-003, 7.42274709e-003,
          1.56691030e-003, 7.53703667e-003, -1.42156542e-003,
          -1.09597631e-002, -9.40502901e-003, 6.36361423e-004,
          9.17496253e-003, 2.71565001e-003, 2.92523415e-003,
          -1.95508497e-003, 4.47621988e-003, -6.51328126e-004,
          -7.90445041e-003, -1.74330864e-002, 1.39498909e-003,
          -4.19428293e-003, 2.17393804e-002, 1.62065346e-002,
          4.87731164e-003, 5.63548598e-003, 4.04922944e-003,
          1.59150979e-003, -2.55906116e-003, -7.13961804e-003,
          -9.89508256e-003, 9.87034850e-003, 9.57796443e-003,
          3.70846596e-003, 3.39483563e-003, 4.43717185e-003,
          -1.56955281e-003, -1.41318757e-002, -8.89758021e-003,
          1.40826553e-002, -3.50512704e-003, -6.75334129e-003,
          -6.40122266e-003, 1.92912621e-003, 2.93412502e-003,
          -6.61358610e-003, -1.90079082e-002, 1.43097527e-003,
          2.33669858e-002, -5.76543203e-003, -1.46948807e-002,
          -1.01367291e-002, 2.47279997e-003, 1.36294379e-003,
          -4.86141816e-003, -8.16690363e-003, 7.66597968e-003,
          -6.92870142e-003, -1.22138551e-002, -1.04793848e-003,
          -9.86221712e-004, 3.87272146e-003, 7.19153462e-003,
          4.64738114e-003, -1.28157111e-002, -3.20098479e-003,
          4.75139683e-003, -1.57922227e-002, -1.65671967e-002,
          -1.26054641e-002, 6.42789342e-003, 3.24908737e-003,
          -1.54130149e-003, -1.83916045e-003, 8.13771319e-003,
          1.40879760e-002, -1.26025118e-002, -1.26245255e-002,
          -8.07608943e-003, 2.76790495e-004, -4.38625412e-003,
          -7.35281920e-003, 8.18988890e-004, 1.26413964e-002,
          8.92852084e-004, -1.58290230e-002, -1.14079053e-002,
          -5.89194382e-003, 1.15239888e-003, -1.97599246e-003,
          -3.97092444e-005, 1.06135011e-002, 1.51876165e-002,
          6.44222135e-003, -1.67546328e-002, -1.91723555e-002,
          -1.65683124e-002, 2.79977405e-003, -5.77077735e-003,
          -1.98270916e-003, 2.23685917e-003, 4.41526342e-003,
          6.99265208e-003, -2.70085735e-003, -1.26630487e-002,
          -2.02549659e-002, -5.71593735e-003, -6.51788665e-003,
          -7.48137711e-004, 1.14411246e-002, 8.93383566e-003,
          -9.44212358e-003, -1.77248325e-002, -1.09256990e-002,
          -5.41060511e-003, 5.64000045e-004, -4.22497606e-003,
          9.95557639e-004, 1.04011465e-002, 9.62253008e-003,
          -1.93529986e-002, -1.52748814e-002, -6.98923739e-003,
          -5.13444794e-003, -2.35909387e-003, -8.01048335e-003,
          -2.91280472e-003, 6.08561095e-003, 6.12618029e-003,
          4.63586766e-003, 4.11625905e-003, -8.18785396e-004,
          -8.83989036e-003, -3.20199504e-003, -7.91909453e-003,
          -1.34323013e-003, 1.00900540e-002, 7.25547876e-003,
          -2.70676077e-003, 6.26658555e-003, 2.41909362e-003,
          -6.67136535e-003, 3.65694799e-003, -9.58508253e-003,
          -7.52862869e-003, 4.34481492e-003, 1.12146167e-002,
          -2.13348884e-002, -1.51005294e-002, -3.09921522e-003,
          -3.61213833e-003, 2.36676703e-003, -3.71428696e-003,
          -6.38527982e-003, 4.77042189e-003, 4.60666139e-003,
          -2.34028660e-002, -1.48217166e-002, -1.70546083e-003,
          1.09116023e-003, 4.90627484e-003, 5.04799886e-003,
          5.23871742e-003, 1.07215382e-002, 1.71974441e-003,
          -1.50382230e-002, -1.84509589e-003, -5.95537573e-003,
          -1.03052650e-002, 7.03513948e-003, -4.59005684e-003,
          -1.07317641e-002, 1.21751660e-002, 7.02254707e-003,
          -1.06309801e-002, -2.63150875e-003, -3.11202835e-003,
          -5.88041870e-003, 4.56532510e-003, -1.99525803e-003,
          -2.19039197e-004, 1.72773171e-002, 1.14326924e-003,
          -1.09722493e-002, -1.03832157e-002, 5.26746083e-003,
          -2.86351470e-003, -7.07035512e-003, 1.60555600e-003,
          5.65753737e-003, 2.44252551e-002, 1.90994907e-002,
          -7.00283854e-004, -1.08033223e-002, 4.81047528e-003,
          -5.67819038e-003, -1.27390893e-002, -3.67053086e-003,
          1.54216457e-002, 3.09058968e-002, 2.08877437e-002,
          -3.81139037e-003, 2.13171099e-003, 3.58538353e-003,
          5.31045860e-003, -9.25620552e-003, -9.07021295e-003,
          4.16272553e-003, 2.00323518e-002, -5.17100038e-004,
          1.00142497e-003, 4.90532303e-003, 3.93469958e-003,
          -4.42326348e-003, -2.03859527e-002, -9.38961748e-003,
          1.82245541e-002, 2.31653992e-002, 9.87593550e-003,
          -1.39911370e-002, -1.62343513e-002, -2.69559585e-003,
          1.55633592e-004, -6.77338568e-003, -7.05496408e-003,
          8.06609262e-003, 1.70622859e-002, 6.04615780e-003,
          -2.56466623e-002, -1.77774169e-002, -1.76913291e-003,
          2.98023596e-003, -2.90277554e-003, -3.64633230e-003,
          4.69803438e-003, 2.55066510e-002, 7.02570844e-003,
          4.29503008e-004, 4.46935231e-003, 5.73812693e-004,
          -2.48613325e-003, -1.31373983e-002, -7.26461643e-003,
          1.49080325e-002, 1.92465801e-002, 6.44362532e-003,
          -8.35602172e-003, -2.44848523e-003, 4.66955919e-003,
          3.57849430e-003, -6.24371273e-003, 1.68860145e-003,
          1.19994413e-002, 2.17792969e-002, 1.26447277e-002,
          -3.29438336e-002, -1.66263152e-002, -5.95646491e-003,
          -9.92805464e-004, -7.37771392e-003, 2.64349277e-003,
          1.15696527e-002, 2.57515609e-002, -3.54401185e-003,
          -2.22008619e-002, -1.85386147e-002, -1.22714620e-002,
          5.80323208e-003, 6.69355225e-003, 2.29045637e-002,
          3.09462808e-002, 2.25277506e-002, -1.53063405e-002,
          -1.38469581e-002, -3.51907709e-003, -2.74571311e-003,
          1.71023817e-003, -8.91271140e-003, 5.16263489e-003,
          1.27301505e-002, 9.85591579e-003, -3.75736185e-004,
          -3.82739771e-003, 1.80699416e-002, -3.01176828e-004,
          1.58675052e-002, -8.74002231e-004, 1.16699217e-002,
          1.93654113e-002, 1.43383481e-002, -5.68103790e-003,
          -2.67083440e-002, -3.79905943e-003, -4.96464688e-003,
          6.84347376e-003, 9.27137118e-003, 2.00522542e-002,
          2.17770301e-002, 1.17712701e-002, -1.99192110e-002,
          -2.91591641e-002, -5.01749199e-003, -2.99726101e-003,
          4.36301669e-003, 6.21295488e-003, 1.28288204e-002,
          1.07834553e-002, -4.91948240e-003, -2.04001740e-002,
          -1.65037103e-002, 2.20902637e-002, 5.61102713e-003,
          1.35228820e-002, 4.27813129e-003, 1.84055157e-002,
          2.07824558e-002, 2.16408856e-002, -1.33139659e-002,
          -2.06195787e-002, 1.15200114e-002, -4.10060724e-003,
          5.40598482e-003, 3.67436814e-003, 1.84833426e-002,
          1.80941243e-002, 2.50747632e-002, -1.34605393e-002,
          -3.33749354e-002, -1.02354474e-002, -7.65184872e-004,
          8.39289371e-003, 1.64135937e-002, 1.89804658e-002,
          1.33599350e-002, -1.94521970e-003, -1.71043053e-002,
          -5.05384430e-002, -2.40640175e-002, -3.30208940e-003,
          1.75426621e-002, 2.87524741e-002, 2.82813404e-002,
          1.80365164e-002, -2.59568216e-003, -3.07123624e-002,
          -8.23311601e-003, 1.39295859e-002, 3.28075024e-003,
          8.91020335e-003, 9.95795429e-003, 1.64585784e-002,
          1.04992939e-002, 1.28245214e-002, -1.42274303e-002,
          -2.17699651e-002, 4.27643210e-003, 8.25040787e-003,
          2.11122613e-002, 2.75227427e-002, 2.69124024e-002,
          1.49938604e-002, 2.61854823e-003, -2.81002074e-002,
          -2.98393220e-002, -1.36233717e-002, -6.53585303e-005,
          9.00084805e-003, 2.20140740e-002, 2.05546916e-002,
          1.17999548e-002, -6.68370747e-004, -1.60920769e-002,
          -2.73624677e-002, -8.27139709e-003, 2.92243715e-003,
          6.86401315e-003, 9.58302803e-003, 7.79058225e-003,
          -1.65005229e-004, 3.42282769e-003, -1.70978028e-002,
          -1.10387383e-002, 7.01458054e-003, 9.56149772e-003,
          1.19438730e-002, 2.57072579e-002, 2.38692351e-002,
          1.37321763e-002, 3.09997634e-003, -1.87591072e-002,
          -1.16243027e-002, 1.06619149e-002, 1.14460941e-002,
          -2.92105880e-003, 1.41013386e-002, 1.74175352e-002,
          1.00535229e-002, -6.70136232e-003, -2.04057842e-002,
          -2.00679041e-002, -5.37687633e-003, 1.86587439e-003,
          5.87065192e-003, 9.54148266e-003, 1.01051265e-002,
          5.83488680e-003, 2.47599650e-003, -8.41786154e-003,
          -1.00085987e-002, 2.43544765e-003, 5.93648525e-003,
          5.79758873e-003, 1.37024773e-002, 1.32180145e-002,
          8.76752287e-003, 1.97847793e-003, -1.45398891e-002,
          -6.27076300e-003, 1.46689881e-002, 1.56843830e-002,
          3.32003739e-003, 3.81997018e-003, 1.02596041e-002,
          4.59803734e-003, -1.23677272e-002, -2.16270927e-002,
          -4.54946887e-003, 2.58359481e-002, 1.99275520e-002,
          9.91423335e-003, 3.75581253e-003, 1.23854363e-002,
          2.09734566e-003, -1.72153562e-002, -2.81193573e-002,
          -1.11512709e-002, 5.16650826e-003, 9.96952411e-003,
          4.46378766e-003, 5.41405100e-003, 4.57154447e-003,
          1.15949195e-003, -6.51535694e-004, -1.45957218e-002,
          -1.21390708e-002, 2.91994074e-003, 1.30367400e-002,
          5.32018207e-003, -3.87703697e-003, -5.80672594e-003,
          -6.46407250e-003, -3.63539159e-003, -1.34399710e-002,
          5.20373462e-003, 1.74312815e-002, 1.18636359e-002,
          -5.50284240e-005, -3.67717003e-003, 3.30989715e-003,
          8.48088413e-003, 2.62060988e-004, -8.10435787e-003,
          5.73963905e-003, 5.39959455e-003, 5.23938332e-003,
          -5.78377349e-003, -1.06899869e-002, -1.86852878e-003,
          5.62128145e-004, 1.08502116e-002, 1.25236949e-002,
          -3.60644911e-003, 8.53374135e-003, 1.06644211e-002,
          7.43396953e-003, -7.40445859e-004, -8.60843435e-003,
          -1.31485788e-002, -9.57901496e-003, -2.18752157e-002,
          -4.01635095e-003, 6.37427391e-003, 1.93927495e-003,
          1.57215400e-003, 5.18672634e-003, 1.04285507e-004,
          -7.45189656e-003, -1.13853486e-002, -2.70152036e-002,
          5.18707745e-003, 3.92186176e-003, 1.58354407e-003,
          -3.98235815e-003, -7.37301959e-003, -2.26774509e-003,
          -5.94573421e-003, 1.00632738e-002, 1.32294446e-002,
          -2.91283359e-003, 5.73395705e-003, 5.86720230e-003,
          1.93164730e-003, -2.73983367e-003, 2.87878932e-003,
          -6.22582668e-003, 1.60857465e-003, 2.86991848e-003,
          5.37843967e-004, 5.40135894e-003, -1.88135891e-003,
          -2.82064895e-003, 2.56639160e-003, 2.03770259e-003,
          -4.75153141e-003, -7.38083944e-003, -4.53224871e-003,
          -9.91987251e-003, -5.62244141e-003, 6.23593107e-003,
          1.82655849e-003, -2.75840634e-003, -4.27513709e-003,
          -9.03622340e-003, -3.82891716e-003, -6.16878737e-003,
          1.10130887e-002, 8.15952849e-003, 3.74946743e-003,
          -8.06941185e-004, 3.11760162e-003, 6.06932491e-003,
          -4.58401255e-003, 4.74254601e-003, 1.00481119e-002,
          4.38563712e-003, -8.15461762e-003, -4.33798181e-003,
          1.73077150e-003, 9.98395588e-003, -2.75955931e-003,
          -5.74398600e-003, -4.48325649e-003, 6.23890804e-003,
          -1.36636952e-002, 4.90721408e-003, 1.44028338e-002,
          2.11070385e-003, -5.86346490e-003, -3.80696496e-003,
          -6.97376300e-003, -2.50640954e-003, -5.24248835e-003,
          -2.00502332e-002, 3.07163410e-003, 1.64936259e-002,
          2.25136406e-003, -7.83044007e-003, -1.08128972e-003,
          -7.71883735e-003, -1.45930089e-002, -1.07225394e-002,
          9.12104268e-003, -4.34453133e-003, 5.42336784e-004,
          3.94530362e-003, 1.19366869e-003, -6.98105525e-003,
          -3.41001293e-003, 1.13608828e-003, 1.52816502e-002,
          1.82335414e-002, 6.33985363e-003, -4.79757600e-003,
          -1.48152439e-002, -1.42587172e-002, -2.41711177e-003,
          -3.21918796e-003, 7.07516866e-003, 2.31865849e-002,
          -9.12411232e-003, -3.16033536e-003, 1.00657912e-002,
          2.01788428e-003, -8.85993592e-004, 5.11707086e-003,
          7.63326476e-004, -1.30177867e-002, -4.01072484e-003,
          -7.60971522e-003, -1.76219530e-002, -7.26395240e-003,
          -1.57506391e-002, -4.49035224e-003, -3.39180185e-003,
          -2.28749262e-003, -1.69609562e-002, -9.13852081e-003,
          1.84219014e-002, 9.32783540e-003, -6.24933653e-003,
          -1.06127234e-002, -7.07146013e-003, 1.92057306e-003,
          7.38150440e-003, 1.00774188e-002, 1.98215563e-002,
          -2.86129746e-003, -2.30765180e-003, -1.07058394e-003,
          -9.68590192e-003, -3.64135881e-003, -5.40963374e-004,
          1.39619149e-002, 1.50646083e-003, -8.43711314e-004,
          -1.02003766e-002, -7.07582571e-003, -1.01656020e-002,
          -2.12456379e-002, 9.43321967e-004, 4.57411486e-004,
          4.10126802e-003, -5.26063750e-003, -1.24921734e-002,
          4.85792197e-003, 1.24401050e-002, -2.08965363e-003,
          -1.98825374e-002, -2.58362410e-003, -2.37269187e-003,
          1.53759180e-003, 4.54938179e-003, -2.84767896e-003,
          -1.22719007e-002, 2.49360153e-003, 2.95463041e-003,
          -7.16556283e-003, 2.06130161e-003, 4.24278871e-004,
          1.02573959e-002, 2.07816344e-003, -5.86883212e-003,
          -1.99274323e-003, 5.81419095e-003, 7.81253353e-003,
          -2.65492988e-003, 1.07328016e-002, 3.32904025e-003,
          6.10934477e-003, 6.02084305e-003, 5.22585586e-003,
          -1.77776103e-003, 1.14716226e-002, 3.92305618e-003,
          -4.03716834e-003, -1.20126584e-003, -7.71617191e-003,
          -7.93681853e-003, 3.00056837e-003, -1.05110919e-002,
          -5.46080945e-003, 1.02494564e-003, -1.80823402e-003,
          -2.19042879e-003, -1.95162441e-003, -1.21036498e-002,
          -5.17533533e-003, 3.22769280e-003, -3.22978408e-003,
          -8.09331983e-003, -1.57351687e-003, 1.90207257e-003,
          3.01430374e-003, 9.76319052e-003, 1.02087075e-003,
          -3.69006721e-003, 6.27034158e-003, 5.21956477e-004,
          -1.35066174e-003, 3.97215225e-003, -7.59840151e-003,
          -9.20900435e-004, 8.69716576e-004, -5.51044289e-003,
          -4.62419121e-003, 1.34177813e-002, 8.06723110e-005,
          -4.94187558e-003, -9.07028001e-003, -9.34387743e-003,
          -8.31991341e-003, -5.32139046e-003, -5.83523326e-003,
          -5.18734800e-004, 8.55462253e-003, -4.36837273e-003,
          -7.44695636e-003, -9.04755481e-003, -9.62708332e-003,
          -9.10421554e-003, -1.11260079e-002, -6.20699860e-003,
          -5.07250987e-003, 3.52155953e-003, -7.58634880e-004,
          1.37812933e-002, 1.45243364e-003, -1.62748806e-002,
          -3.16936872e-003, -9.84704774e-003, -4.97295987e-003,
          -9.34024458e-004, 4.45264950e-003, 1.01299689e-003,
          1.70653854e-002, -8.43863282e-003, -1.60733182e-002,
          5.02095267e-004, -1.58768333e-002, -3.11428541e-003,
          -4.30697249e-003, -9.49971750e-003, 6.62705209e-003,
          -1.58855051e-004, 1.51083944e-002, 3.91326472e-003,
          7.11866096e-003, 2.08825013e-003, -7.88925309e-003,
          3.29690077e-003, 4.41066967e-003, -9.10380390e-003,
          5.09770820e-004, 1.94852110e-002, 5.10058319e-003,
          1.31910131e-003, -5.71112940e-003, -1.34765739e-002,
          9.90009774e-003, 7.09817279e-004, -2.51793838e-003,
          1.10781090e-002, 1.05675654e-002, 4.14431514e-003,
          3.86426458e-003, 6.60183281e-003, -2.71937368e-003,
          -6.88391598e-003, -5.54507738e-003, -8.13051779e-003,
          -7.16256676e-003, 7.91809801e-003, 2.30977428e-003,
          6.87582651e-004, 4.76250472e-003, -3.98593780e-004,
          9.16946738e-005, -6.34579314e-003, -1.34164020e-002,
          6.77251164e-003, 1.76937599e-002, 5.56421001e-003,
          5.15512517e-003, -2.90857861e-003, -4.55123326e-003,
          1.27575742e-002, 7.55758537e-003, -4.01340378e-003,
          5.72508061e-003, 5.10689802e-003, 1.00137610e-002,
          1.00218523e-002, 6.32493338e-003, 1.31246783e-002,
          1.73768848e-002, 1.41115487e-002, 3.85249103e-003,
          -1.89840011e-002, -5.95272752e-004, -2.07473058e-003,
          1.65762869e-003, 6.67153345e-003, 3.25861457e-003,
          5.13321208e-003, -1.18602524e-002, -2.20381394e-002,
          -1.63148418e-002, -1.30422581e-002, -5.56292385e-003,
          -5.38920169e-004, 1.43081797e-002, 1.70401782e-002,
          1.85921323e-002, -1.06848027e-004, -2.03827247e-002,
          7.06118578e-003, 7.95988366e-003, 7.83716328e-003,
          1.08623262e-002, 3.52120376e-003, 1.01220785e-002,
          1.46476366e-002, 9.97379515e-003, -6.57926407e-003,
          5.71839453e-004, 1.99293159e-002, 1.43235922e-002,
          2.57906020e-002, 6.14957605e-003, 3.81167978e-003,
          1.36774583e-002, 1.32016214e-002, -1.23195918e-002,
          -2.58033909e-002, -1.36673804e-002, 5.03810123e-004,
          7.01799756e-003, 1.12776449e-002, 1.32850949e-002,
          1.82187259e-002, 9.21198819e-003, -2.93674953e-002,
          -3.02587543e-002, 3.69332940e-003, 3.65522597e-003,
          2.05023438e-002, 1.58307403e-002, 9.42449737e-003,
          1.78998616e-002, -3.51968803e-003, -3.23440023e-002,
          -9.70030390e-003, 2.54195891e-002, 1.46387061e-002,
          2.34917384e-002, 9.67132580e-003, 8.59669223e-003,
          1.08580431e-002, 1.43436566e-002, -1.31515497e-002,
          -4.85197641e-003, 2.97265444e-002, 1.17316693e-002,
          1.45085808e-002, 7.98186474e-003, 1.19861560e-002,
          1.22511489e-002, 2.10702643e-002, -8.75529274e-003,
          -2.58097779e-002, 1.06277736e-002, 6.09125709e-003,
          1.68870911e-002, 1.28364814e-002, 8.94660037e-003,
          8.37013032e-003, -1.24641899e-002, -3.88163105e-002,
          -2.66819559e-002, 1.78335831e-002, 1.10729188e-002,
          1.38773294e-002, 1.18926624e-002, 1.29875578e-002,
          9.32033826e-003, -1.27606299e-002, -3.07987817e-002,
          -1.75882108e-003, 2.03807913e-002, 1.32172443e-002,
          1.71505567e-002, 9.91016626e-003, 8.84842873e-003,
          6.60083070e-003, 8.12944118e-003, -1.67942327e-002,
          -1.33664100e-004, 2.40616892e-002, 2.13813093e-002,
          2.43498255e-002, 1.62926931e-002, 1.85834300e-002,
          1.44148218e-002, 6.30731136e-003, -1.54651506e-002,
          -2.60264464e-002, 1.28000509e-002, 1.20812552e-002,
          2.13836320e-002, 1.45530170e-002, 9.88557376e-003,
          3.44501645e-003, -1.65682584e-002, -3.57005000e-002,
          -1.09257950e-002, 1.48721877e-002, 1.22880843e-002,
          2.27727219e-002, 1.95385627e-002, 1.58795044e-002,
          8.50083958e-003, -2.18812712e-002, -3.29702385e-002,
          3.31419054e-003, 1.94950830e-002, 1.21682240e-002,
          1.33985486e-002, 1.44085884e-002, 1.31435366e-002,
          7.93213118e-003, 2.85990856e-004, -1.93577744e-002,
          1.19280471e-002, 1.96640808e-002, 8.26639216e-003,
          8.78674444e-003, 9.41707473e-003, 9.88096744e-003,
          1.48253678e-003, -1.01113720e-002, -5.44038368e-003,
          1.62645848e-003, 2.17938162e-002, 5.32047963e-003,
          1.18767973e-002, 1.04117328e-002, 1.14718182e-002,
          2.01648567e-003, -2.70760432e-002, -4.00281996e-002,
          8.14040285e-003, 1.84727851e-002, 4.53607133e-003,
          1.01458291e-002, 5.33584924e-003, 1.21444315e-002,
          2.83394940e-003, -2.46733110e-002, -2.99451239e-002,
          7.45380856e-003, 1.40413037e-002, 5.09333750e-003,
          9.90424678e-003, 3.54803493e-003, 3.51824798e-003,
          -1.20331056e-003, -1.08665703e-002, -1.09835258e-002,
          -2.41744588e-003, 2.25445665e-002, 1.07716164e-002,
          5.21017890e-003, -1.14055362e-003, -5.05305303e-004,
          6.55611744e-004, -7.08284555e-003, -1.62100419e-002,
          5.95241459e-003, 9.24627949e-003, -4.32547834e-003,
          7.24207051e-003, 6.49692444e-003, 5.49777504e-003,
          -1.69419870e-003, -1.70963556e-002, -1.54608507e-002,
          -7.46567687e-003, 3.78398021e-004, 3.74761666e-003,
          1.27145629e-002, 7.98770785e-003, 1.70218805e-003,
          2.61523761e-003, 2.27184338e-003, -1.48874531e-002,
          5.07621188e-003, 1.71026718e-002, 9.16382205e-003,
          -5.11437422e-004, -7.37906108e-003, -4.39593336e-003,
          4.42483230e-003, 1.62923243e-003, 1.20307610e-003,
          3.81455850e-003, -1.39297522e-003, -1.70027011e-003,
          -3.99878249e-003, -3.88852856e-003, -2.67615163e-004,
          1.97454006e-003, 6.04698295e-003, 6.76450832e-003,
          -4.52658162e-003, 3.33174597e-003, 3.84017592e-003,
          7.67307496e-003, 2.85748998e-003, 7.28413404e-004,
          4.27304488e-003, -7.92724837e-004, -7.22367410e-003,
          -1.64364912e-002, -6.36229478e-003, 2.63787457e-003,
          8.42630677e-003, 2.18680152e-003, 4.19764640e-003,
          1.72283209e-003, -7.08562648e-003, -1.41024208e-002,
          4.08983836e-003, -2.34538922e-003, -3.93099291e-003,
          -6.59894571e-003, -3.62276891e-003, 2.76974705e-003,
          1.67692499e-003, 9.30972211e-003, 1.40649052e-002,
          -4.32512444e-003, 1.12197548e-003, 3.27924779e-003,
          8.90810858e-004, -5.76296356e-004, 4.70533082e-003,
          5.50808711e-003, 1.18289664e-002, 1.54500885e-005,
          -1.47655029e-002, 1.93528412e-003, 5.73509093e-003,
          1.54049066e-003, 1.16919214e-003, 1.48243934e-003,
          4.35307971e-004, -6.20807335e-003, -1.28927482e-002,
          -1.49066066e-002, 9.86338686e-003, 2.85440387e-006,
          -2.10168608e-003, -7.09201733e-004, 4.97147441e-003,
          4.18494595e-003, -5.50509058e-003, -1.24303009e-002,
          2.09973846e-003, 2.32016644e-003, 3.59385827e-004,
          -9.79792909e-004, 4.71372390e-003, 9.43166111e-003,
          5.43739414e-003, 9.09133535e-003, -6.55758195e-003,
          -2.90225027e-003, -1.79952402e-002, -1.44748986e-002,
          7.36317248e-004, 9.88406781e-003, 1.19403265e-002,
          8.22702609e-003, 2.10199528e-003, -1.29239820e-003,
          3.89967067e-003, 9.05437768e-003, -1.36793987e-003,
          -4.38662199e-003, -9.42402858e-006, 6.92351116e-003,
          4.14892565e-003, -9.27164126e-003, -1.23215206e-002,
          -9.21686180e-004, -1.96898468e-002, -1.87610574e-002,
          -7.75924651e-003, -7.28395628e-003, 7.46133039e-003,
          7.47610023e-003, -1.03825629e-002, -1.01105794e-002,
          7.34447269e-003, -1.54813491e-002, -1.74712017e-002,
          -6.00588927e-003, -5.08005824e-003, -7.05045648e-004,
          3.03225894e-003, 7.76604656e-003, 1.70809366e-002,
          1.19647402e-002, -8.64853617e-003, -3.22476774e-002,
          -2.59213075e-002, -1.01737436e-002, 1.99397327e-003,
          1.12040183e-002, 2.00270303e-002, 2.75268666e-002,
          8.55869520e-003, -1.30935004e-002, -1.66737158e-002,
          -5.50814392e-003, -8.91172048e-003, -3.82563169e-003,
          -9.93624562e-004, -1.17322793e-002, -3.75057501e-003,
          4.68980474e-003, -7.39582162e-003, -6.26677135e-003,
          -8.14449601e-003, -5.12343366e-003, -1.04102641e-002,
          -1.01230079e-002, -1.55278901e-002, 1.10135730e-002,
          1.46497292e-002, -2.78307288e-003, -2.75626555e-002,
          -1.95050593e-002, -1.37011870e-003, 3.60892713e-003,
          7.72440061e-003, 1.23500032e-002, 1.93933900e-002,
          -4.59207688e-003, -1.21234395e-002, -1.41625870e-002,
          -1.06005715e-002, -1.44803303e-003, 1.65134599e-003,
          9.65739880e-003, 3.93600576e-003, 1.88328006e-004,
          1.65719539e-002, -1.06605794e-002, -1.27657335e-002,
          -6.61772257e-003, -1.47283322e-003, -5.44405868e-003,
          -7.62348203e-003, -7.00636487e-003, 2.18541697e-002,
          4.29681037e-003, -2.29457784e-002, -2.31865328e-002,
          -1.32025136e-002, -8.61850847e-003, 1.64014171e-004,
          -2.66254530e-003, -1.13761155e-002, 4.50597930e-004,
          -2.26397514e-002, -1.21554248e-002, -5.24706626e-003,
          -5.57374628e-003, -3.69949685e-003, -4.33985493e-004,
          9.88463778e-003, 9.08247475e-003, -4.18354198e-003,
          -2.31303852e-002, -9.65539273e-003, -1.62956736e-003,
          -1.20218098e-003, 2.94736034e-004, 1.44364068e-003,
          1.11962697e-002, 1.21731581e-002, -1.95276143e-003,
          -5.86023508e-003, -1.64773017e-002, -9.04159248e-003,
          -7.24287378e-003, -2.33830861e-003, 4.25317092e-003,
          1.08240591e-002, 9.39035229e-003, -1.00403624e-002,
          -7.79818231e-003, -3.65645415e-003, -8.46526306e-003,
          -7.16790464e-003, 1.07008417e-003, -4.46792896e-004,
          1.16060674e-002, 1.23837739e-002, -4.20281664e-003,
          -1.17022125e-002, -9.50521324e-003, -5.22242254e-003,
          -2.54728668e-003, 1.82673463e-003, 1.62456662e-003,
          7.05266837e-003, 7.78463250e-003, -2.59629451e-003,
          -5.20313950e-003, -3.11343325e-003, -9.42808110e-003,
          -6.72163162e-003, -4.08681529e-003, -2.30701384e-003,
          6.88144471e-003, 1.35341333e-002, 9.18915216e-003,
          -1.48870489e-002, -6.06612815e-003, -9.07906611e-003,
          -1.02928272e-002, -1.20784959e-003, -1.24791376e-002,
          4.56775026e-003, 3.67254834e-003, -6.19966071e-003,
          -2.08328273e-002, -1.56912692e-002, -3.85254622e-003,
          -4.95156506e-003, -1.40591129e-003, -6.42741425e-003,
          1.16989948e-002, 7.96578918e-003, -7.40614953e-003,
          1.02873007e-002, 1.65999797e-003, -9.11023375e-003,
          -1.61476864e-003, -4.74677375e-003, -1.51355262e-003,
          3.32429050e-003, 6.83699455e-003, 2.51773861e-003,
          1.93077549e-002, -9.23528988e-003, -1.00222137e-002,
          5.63053181e-003, -1.78720953e-003, -2.23986642e-003,
          -5.19174943e-003, -1.24496985e-002, -3.16902413e-003,
          -1.03648957e-002, 3.72104230e-004, -3.03445995e-004,
          -8.11039354e-005, 2.10676063e-003, -2.89851509e-004,
          5.83660416e-003, 4.86030942e-003, -1.16037596e-002,
          -5.03262598e-003, 2.16386306e-005, -1.05072195e-002,
          -1.01678059e-004, 7.76159018e-003, -6.44833874e-003,
          -1.05363261e-002, -1.38236182e-002, -8.44420958e-003,
          6.36742450e-003, 9.91375744e-003, 6.98689278e-003,
          8.17238353e-003, 3.07395752e-003, -3.04381666e-003,
          -7.28517910e-003, -1.21452361e-002, -3.81195988e-003,
          -7.43205659e-003, -1.48624566e-003, 2.30933283e-003,
          3.20230518e-003, 4.26031370e-003, 1.16191420e-003,
          -5.42311603e-003, -4.17630607e-003, -1.28649771e-002,
          1.69302546e-003, 1.29078701e-002, 1.01289069e-002,
          1.18466895e-002, 7.91524630e-003, 4.83467430e-003,
          7.45441159e-003, -1.01002911e-002, -1.51346428e-002,
          3.40343802e-003, 1.70527853e-003, 6.30361587e-003,
          1.80066389e-003, -8.63663154e-004, -6.35941094e-003,
          -3.14601324e-003, 7.79489195e-003, 1.60850957e-003,
          -3.87370419e-005, 1.33022934e-003, 2.56865611e-003,
          2.32755695e-003, 5.71381627e-003, 4.95580398e-003,
          6.09757146e-003, -1.02088356e-003, -6.54276591e-005,
          -1.90496892e-002, -7.65934493e-003, -2.55337614e-003,
          1.98430591e-003, 1.36961443e-002, 1.28508518e-002,
          1.54976854e-002, 4.28806292e-003, -2.70957705e-002,
          6.31543342e-004, -3.27677862e-003, 4.83118091e-003,
          -1.92684133e-003, -1.86583120e-003, -2.05292716e-003,
          5.35986526e-003, 1.54324379e-002, 5.30488929e-003,
          -2.00737994e-002, -8.34708661e-003, 5.56199113e-004,
          -2.83688284e-003, 7.28441030e-003, 6.24369271e-003,
          1.05587924e-002, 7.79788103e-003, -2.03254931e-002,
          -1.35401506e-002, -1.71199709e-003, 2.95607187e-003,
          5.79140661e-003, 1.40027571e-002, 1.48533247e-002,
          1.37098469e-002, -4.54289606e-004, -3.47303636e-002,
          -6.06393907e-003, 6.01279922e-003, 4.36290354e-003,
          1.08105624e-002, 1.80855170e-002, 1.91580262e-002,
          1.42137539e-002, -6.62483694e-003, -3.39094400e-002,
          -1.93150621e-002, 3.97424120e-003, 5.52481599e-003,
          3.38587607e-003, 1.30894994e-002, 1.67612787e-002,
          1.99529994e-002, 4.67648357e-003, -2.66130399e-002,
          -3.81202600e-003, 1.55728916e-002, 8.14422779e-003,
          1.05625885e-002, 1.99362990e-002, 2.06142012e-002,
          2.12496128e-002, 3.59326415e-003, -2.90144123e-002,
          -6.09918358e-003, 1.50183635e-002, 5.15324436e-003,
          9.84063186e-003, 1.50315510e-002, 1.40549932e-002,
          1.53384637e-002, -7.47605367e-003, -3.90083119e-002,
          -1.91863291e-002, 1.12100737e-002, 5.84192714e-003,
          1.00542260e-002, 1.63520463e-002, 1.52966091e-002,
          2.07144544e-002, 5.34466701e-003, -2.81064380e-002,
          3.20675410e-003, 1.54729486e-002, 6.35183137e-003,
          1.05685471e-002, 1.47657674e-002, 1.10459439e-002,
          1.57138221e-002, -1.40136236e-003, -2.52699312e-002,
          -6.44926680e-004, 9.48285498e-003, 7.32537406e-003,
          8.73520132e-003, 1.11019341e-002, 5.37048932e-003,
          1.92217231e-002, 9.48238466e-003, -6.20099949e-003,
          -1.87587161e-002, 2.52607558e-003, 4.23153536e-003,
          1.16100153e-002, 1.56550072e-002, 9.16801207e-003,
          1.06470473e-002, 3.15526355e-004, -2.91777756e-002,
          -3.30696185e-003, 8.33835825e-003, 3.87957622e-003,
          1.35532115e-002, 1.79175884e-002, 8.64029583e-003,
          1.21495761e-002, -6.72673155e-003, -1.99230257e-002,
          -1.25286924e-002, 1.87099469e-003, 3.59397288e-003,
          4.98569338e-003, 9.43465717e-003, 7.04483967e-003,
          1.88666098e-002, 7.89815653e-003, -8.01240839e-003,
          -4.38415725e-003, 1.03977872e-002, 7.83334672e-003,
          9.62047838e-003, 1.42858988e-002, 1.00899888e-002,
          1.51961790e-002, 2.64766766e-003, -4.59961174e-003,
          -1.52544293e-003, 2.02504033e-003, 2.98413506e-004,
          8.95939674e-003, 1.65362991e-002, 7.50257168e-003,
          1.03244418e-002, -9.97830089e-003, -2.48869471e-002,
          4.56570601e-003, 6.27168640e-003, 2.72498676e-003,
          6.64138421e-003, 1.31653035e-002, 1.36928046e-002,
          7.00839749e-003, -4.60786093e-003, -1.30181015e-002,
          -3.34145688e-003, 8.77306331e-003, 5.28770452e-003,
          1.00653814e-002, 1.65351517e-002, 3.29477107e-003,
          -2.20768573e-003, -6.55067991e-003, -1.21627757e-002,
          1.42318569e-003, 6.14188612e-003, 1.28377201e-002,
          1.31512396e-002, 1.74202118e-002, 4.82448656e-003,
          -8.39232281e-003, 6.62946724e-004, -1.07610039e-002,
          7.38844415e-003, 1.29321581e-002, -3.19020939e-003,
          -1.18615059e-003, 3.68402246e-003, 1.09858187e-002,
          1.45436358e-003, -9.81651805e-003, -4.68367757e-003,
          8.29164498e-003, 9.95889027e-003, 9.79069504e-004,
          8.42640828e-003, 1.12629337e-002, 1.04571534e-002,
          8.23688880e-003, -8.44994932e-003, -2.46614730e-003,
          -3.52498144e-003, 6.64653210e-003, 9.38672759e-003,
          8.81189015e-003, 1.17670428e-002, 8.72665737e-003,
          -9.04906599e-004, 6.24711858e-003, -1.57675222e-002,
          -6.51511783e-003, 5.15949260e-003, 1.06879249e-002,
          1.21847643e-002, 9.70164128e-003, 6.85786782e-003,
          -2.04974995e-003, 2.93983240e-003, -1.77363586e-002,
          4.28250525e-003, 1.10639613e-002, 4.48633032e-003,
          9.29522980e-003, 8.39907117e-003, 5.42530324e-003,
          5.59533900e-003, -7.26363203e-003, -1.03547238e-003,
          -9.71687865e-003, 3.65836825e-003, 1.08216293e-002,
          1.19550899e-002, 6.70683151e-003, 3.55799613e-003,
          2.63955561e-003, -1.34177716e-003, -8.59930180e-003,
          -5.95231541e-003, 7.46800099e-003, 8.46942421e-003,
          8.93750135e-003, 7.06110196e-003, 1.70098827e-003,
          -1.13711609e-002, -5.77124814e-003, -1.09791653e-002,
          -4.18077596e-003, -3.70626524e-003, 4.93218051e-003,
          1.38213141e-002, 1.08292801e-002, 5.44304214e-003,
          1.00905185e-004, -1.32457248e-003, 1.73909171e-003,
          -7.73740001e-003, 1.20788198e-002, 6.81527192e-003,
          7.05245277e-003, 3.88973951e-003, 2.18610466e-003,
          1.78803876e-003, 2.87054596e-003, -3.85331572e-003,
          -3.73187219e-003, 9.52480361e-003, -5.74529497e-003,
          -1.02821365e-003, -1.19001116e-003, 4.11324948e-003,
          5.65020368e-003, 8.37931526e-004, 3.28472932e-003,
          -4.70729498e-003, -1.88416708e-002, -8.45678151e-003,
          4.90282523e-003, 7.30569661e-003, 5.29186428e-003,
          5.57873258e-003, 9.56362952e-003, 1.79738905e-002,
          -5.88602340e-003, -1.99428722e-002, -1.41676869e-002,
          -5.38116973e-003, 2.23668478e-003, 4.24320297e-003,
          8.95191636e-003, 1.02560306e-002, 8.30957852e-003,
          1.82274859e-002, 1.58301350e-002, -3.69081926e-003,
          -6.36127684e-003, -1.57709629e-003, 4.28735372e-003,
          7.63072679e-003, 6.18890976e-004, -2.39980198e-003,
          1.33724436e-002, -8.65122490e-003, -7.67524820e-003,
          -6.86266925e-003, -4.04244754e-003, 5.72206499e-003,
          6.67442987e-003, -2.59934715e-003, -3.92155303e-003,
          4.91931895e-003, -8.73437896e-003, -3.96065880e-003,
          -1.53365091e-003, 5.41360001e-004, 3.49569321e-003,
          8.34724866e-003, 4.52169869e-003, 9.18645761e-004,
          -5.54754538e-003, -8.52034707e-003, -1.72885298e-003,
          1.87413685e-003, 4.03554784e-003, 3.86150624e-003,
          9.02758725e-003, 3.65605927e-003, -5.63100073e-003,
          2.93337787e-003, -2.27417960e-003, -5.33464889e-004,
          1.75212254e-003, 5.39829489e-005, 1.36468955e-003,
          6.88464846e-004, -4.50473325e-003, -1.25065669e-002,
          2.96312035e-004, 1.38662325e-003, 9.22805257e-003,
          5.25226165e-003, 4.78080194e-003, -4.60362248e-003,
          -1.55763719e-002, -8.88085179e-003, 4.37523052e-003,
          -1.22602554e-002, -1.22622922e-002, -8.08505109e-004,
          3.50835524e-003, 3.86981876e-003, 2.49322737e-003,
          7.32105738e-003, 7.83798099e-003, -6.65204646e-003,
          -1.52499536e-002, -4.48047789e-003, 4.99186758e-003,
          4.09174431e-003, 4.07534558e-003, 4.33734123e-004,
          2.39596309e-004, 2.62154709e-003, 5.50267869e-004,
          3.43617378e-003, -7.56580662e-003, -6.20832015e-003,
          -6.86146412e-003, 2.45039468e-003, -5.54947415e-003,
          -1.02555212e-002, -1.19238887e-002, 1.21353948e-002,
          1.26834784e-003, -1.06211901e-002, -1.03060724e-002,
          -1.10506956e-002, -1.74449920e-003, -3.73407151e-004,
          -2.84569617e-003, -1.45491324e-002, 2.23357813e-003,
          -9.63257253e-003, 7.14678271e-003, 4.33580717e-003,
          -5.84173598e-004, 4.46960609e-003, -1.71106448e-003,
          -6.77454227e-004, -5.27599361e-003, 9.20872204e-004,
          1.08868945e-002, 1.24229854e-002, 2.39498192e-003,
          -2.95726728e-004, 3.52290436e-003, -9.30116512e-004,
          -4.03414899e-003, -1.35777034e-002, -1.94656150e-003,
          -6.37032697e-003, -5.68808243e-003, -1.63261034e-003,
          -3.34007433e-003, 1.25720492e-003, 2.78970459e-003,
          6.34944113e-003, -6.91517070e-003, -1.14822984e-002,
          -2.96571199e-003, 2.73993076e-003, -3.16273491e-003,
          -4.14079661e-003, 1.87679031e-003, -7.53086642e-004,
          7.39992550e-003, 4.81952867e-003, -1.39282830e-002,
          2.27253214e-002, 7.61021627e-003, 4.74889064e-003,
          2.06095283e-003, 9.12607298e-004, -1.55290868e-003,
          -4.89020208e-003, -1.65437069e-002, -1.12733291e-002,
          9.99394525e-003, 1.27177248e-002, 8.29028897e-003,
          2.12581409e-003, 1.52670231e-003, -4.87360824e-003,
          -3.83532327e-003, -9.80080571e-003, -1.69460624e-002,
          -1.35086337e-002, -1.69334840e-003, -1.39117206e-003,
          -5.02132112e-003, -6.75437564e-004, -5.83895389e-003,
          2.48971279e-003, -8.89566203e-004, -1.00533701e-002,
          -1.55508108e-002, -1.07882014e-002, 2.99552735e-003,
          -2.66400864e-003, -6.38056139e-004, -2.39971303e-003,
          5.90918632e-003, 6.12335047e-003, -6.19287742e-003,
          3.60171380e-003, 5.07378764e-003, 4.13398165e-003,
          -6.57106648e-005, 3.53369350e-003, -1.44722348e-003,
          2.38932204e-004, -9.07352101e-003, -1.27222966e-002,
          1.53932907e-002, -5.46198245e-003, 4.22871485e-003,
          -3.47015471e-003, -4.29017091e-004, -9.51840892e-004,
          -1.54424505e-003, -1.24566525e-003, 3.95692827e-004,
          -1.23872766e-002, -5.11153648e-003, -3.30712157e-003,
          -6.15187048e-004, 1.95167109e-003, -1.24297431e-003,
          -2.71037547e-003, -2.34188302e-003, -3.99378315e-003,
          -1.19014829e-002, 9.87492851e-004, -4.64677298e-003,
          -1.70766923e-003, 4.50465363e-003, -3.61805037e-003,
          -9.80681926e-003, -1.00711416e-002, -1.46078253e-002,
          1.35210864e-002, -7.13322719e-004, 1.85786921e-003,
          -2.83900020e-003, -7.95348198e-004, -2.72447080e-003,
          -5.83859161e-003, -5.63281076e-003, 6.75348844e-003,
          1.94983575e-002, 1.12651410e-002, 7.06337232e-005,
          -7.41790340e-004, -5.85409580e-004, -4.43506101e-003,
          -6.66502677e-003, -1.36401672e-002, -7.75589701e-003,
          -7.07270065e-003, 5.56268822e-003, 7.47115165e-003,
          9.44070239e-003, 8.56010057e-003, 8.90032854e-003,
          1.46556813e-002, -6.49870280e-003, -1.99764166e-002,
          2.28827106e-004, 2.76733469e-003, 9.38255806e-003,
          6.35070400e-003, 3.29914037e-003, -3.16841481e-003,
          -1.23347432e-004, 4.51903185e-003, -5.48825925e-003,
          -5.17998403e-003, -1.25548814e-003, -5.92472265e-004,
          4.84844297e-003, 9.65719018e-003, 1.29362401e-002,
          1.52095919e-002, 5.11534046e-003, -1.21266479e-002,
          -1.07680960e-002, 3.61462589e-003, 3.49264033e-003,
          2.58296612e-003, 1.19027216e-002, 4.87929257e-003,
          -2.47395667e-003, -2.06431228e-004, -1.69346053e-002,
          -5.92538342e-003, -2.86904606e-003, 2.60560634e-003,
          7.12759153e-004, -4.48402046e-004, -4.97511076e-003,
          -2.05509481e-003, 7.95780122e-003, -8.33401864e-005,
          -3.09971329e-002, -4.89314960e-004, -3.06200841e-003,
          -2.75763054e-003, 5.19334851e-003, 2.85840197e-003,
          1.07307760e-002, 1.42062753e-002, -1.22131798e-002,
          1.31478312e-003, 1.05367247e-002, 6.11880422e-003,
          3.00712162e-003, 9.22221411e-003, -1.83093056e-004,
          -1.39467977e-002, -7.10479077e-003, -8.36826488e-003,
          -1.19904219e-003, 1.78598426e-002, 7.43428338e-003,
          4.52554598e-003, 1.46326357e-002, 5.19542163e-003,
          -8.47556535e-003, -6.32804120e-004, -6.29535550e-003,
          -3.38193253e-002, -3.42110265e-003, -9.46175482e-004,
          -3.79758980e-003, 4.90059378e-003, 7.37456465e-003,
          1.32139688e-002, 5.44064958e-003, -2.65927855e-002,
          -2.49028001e-002, 4.59028501e-003, 4.94478177e-003,
          4.77684708e-003, 1.04895690e-002, 1.12129897e-002,
          1.42198363e-002, 6.78048003e-003, -2.71438453e-002,
          -1.58192236e-002, 2.37019290e-003, 5.46562532e-003,
          2.50888150e-003, 6.90533826e-003, 7.55381770e-003,
          3.94044165e-003, -3.84161039e-003, -8.36867094e-003,
          -2.19902266e-002, -1.45591318e-003, 8.66107363e-003,
          1.21754715e-002, 1.23140961e-002, 1.20846210e-002,
          1.08657656e-002, 8.12481437e-003, -8.43915436e-003,
          -1.44154998e-002, 5.31930896e-003, 5.57794096e-003,
          6.62396243e-003, 5.59609104e-003, 3.22922249e-003,
          8.49327445e-003, 3.76827968e-003, -2.58062463e-002,
          -1.07003450e-002, 7.35177900e-006, 8.04240722e-003,
          6.58354675e-003, 2.92515522e-003, -4.51073050e-003,
          3.43639404e-003, -7.47609232e-003, -1.46732377e-002,
          -2.77926382e-002, -5.64846070e-003, 8.66837613e-003,
          1.21576535e-002, 1.10553987e-002, 6.16758782e-003,
          5.84934838e-003, 2.20570061e-002, 1.56131154e-003,
          -2.16326490e-002, -7.61081511e-003, 1.31560545e-002,
          1.08112423e-002, 7.98974466e-003, 4.69214050e-003,
          8.88773333e-003, 1.91412885e-002, 3.42114456e-003,
          -1.50250755e-002, -4.25593648e-003, 2.52524135e-003,
          1.01288769e-003, 1.85908494e-003, -7.07491854e-005,
          7.64534716e-003, -5.30361617e-003, -1.99443158e-002,
          -1.63705107e-002, -1.88346498e-003, 5.23176184e-003,
          4.43476951e-003, 5.86938951e-003, 8.45410675e-003,
          1.14472983e-002, 2.84894573e-004, -1.28812315e-002,
          -1.65265109e-002, 1.11079542e-003, 7.78111676e-003,
          6.17418624e-003, 4.26169252e-003, 1.22966710e-003,
          9.36886482e-003, 1.46877300e-002, 1.27779972e-003,
          -9.13757924e-003, 1.53466305e-002, 1.44690061e-002,
          7.36858184e-003, 3.09250178e-003, 3.99349676e-003,
          7.88970850e-003, 1.55371232e-002, -1.19855627e-002,
          -1.50200818e-002, 2.54447525e-003, 8.72301869e-003,
          5.70558710e-003, 7.97987077e-003, 3.98858171e-003,
          1.02743899e-004, 2.42248992e-003, -5.55297686e-003,
          -1.40982680e-002, 8.56349897e-003, 8.26375000e-003,
          -7.29337218e-004, 2.72508082e-003, 2.42039375e-003,
          -6.64288551e-003, 1.12280855e-002, 1.07065320e-003,
          -6.66385842e-003, 1.80521533e-002, 1.79139208e-002,
          7.42289377e-003, 7.23401923e-003, 4.84827487e-003,
          5.69361122e-003, 7.87714869e-003, -1.64661016e-002,
          -2.62959097e-002, 4.32498381e-003, 1.11209955e-002,
          -1.51121267e-003, 5.92614152e-003, 8.39487184e-003,
          8.26337561e-003, 1.10559277e-002, -1.35919917e-002,
          -1.55994389e-002, 2.68081273e-003, 1.46368630e-002,
          7.81091955e-003, 7.77413091e-003, 3.44543881e-003,
          7.43484125e-004, 1.56815443e-002, -8.50707386e-003,
          -2.27367543e-002, 1.49170740e-003, 1.42763117e-002,
          1.32584469e-002, 5.65156713e-003, 1.20282650e-003,
          2.06251396e-003, 1.27462456e-002, -5.46182645e-003,
          -2.95237526e-002, -1.86400081e-003, 7.02161109e-003,
          -1.15837331e-003, 7.72770774e-003, 7.59878568e-003,
          1.14369811e-002, 1.96172204e-002, -1.87030889e-003,
          -2.87966151e-002, -1.33393775e-003, 2.39251298e-003,
          3.21809854e-003, 4.17483179e-003, 1.14567298e-003,
          1.32344179e-002, 2.98509244e-002, 1.02288239e-002,
          -1.93772689e-002, -2.07340159e-003, 1.05726961e-002,
          8.59969947e-003, 3.62121686e-003, -7.32959947e-004,
          -9.95702925e-004, 1.10521792e-002, 7.52598792e-003,
          -2.06283089e-002, -8.52459203e-003, 5.98679809e-003,
          7.82864261e-003, 7.22392835e-003, -5.99279243e-004,
          -3.43073113e-003, 1.52017586e-002, 1.79893635e-002,
          -3.73034142e-002, -8.13561678e-003, 2.68850778e-003,
          5.75430412e-003, 2.85222125e-003, 2.02690996e-003,
          1.35262208e-002, 3.31376307e-002, 2.24491134e-002,
          -2.98173465e-002, -8.95174593e-003, 2.39321031e-003,
          6.27599016e-004, 3.52490490e-004, -1.09640893e-003,
          3.25798476e-003, 3.07983570e-002, 3.25321741e-002,
          -2.23656949e-002, -2.00320352e-002, -4.46561305e-003,
          1.33825187e-003, 5.34838950e-003, 1.06504136e-004,
          4.18472977e-004, 1.23124402e-002, 1.90984365e-002,
          -2.17635762e-002, -2.96820663e-002, -9.66668595e-003,
          -3.51210800e-003, 3.01817874e-003, 3.69592500e-003,
          6.15332881e-003, 8.81522615e-003, 1.95819382e-002,
          -2.30451766e-002, -3.90261807e-003, -1.31316076e-003,
          -1.81930454e-003, 7.69279257e-004, -6.97554962e-004,
          2.05836864e-003, 2.35745069e-002, 2.80419141e-002,
          -2.42947205e-003, -3.92834330e-003, -4.82569821e-003,
          -5.46950090e-004, 2.30771070e-003, 1.99563662e-003,
          4.32021916e-003, 1.59222372e-002, 2.43869200e-002,
          -2.04944760e-002, -2.21477672e-002, -1.80221663e-003,
          2.85219925e-004, 1.65064237e-003, 3.63384280e-003,
          1.00011211e-002, 7.95946177e-003, 1.60588952e-005,
          -1.58555601e-002, -6.68657012e-003, -7.42254371e-004,
          6.12904667e-004, 3.63039016e-003, 3.75446887e-003,
          7.81986117e-003, 3.79127031e-003, -1.19819567e-002,
          -1.47710217e-003, -1.77259289e-003, -2.72861263e-003,
          1.72844378e-003, 2.90868175e-003, 8.88372480e-004,
          4.14257729e-003, 7.85795227e-003, 1.51045043e-002,
          -1.16454745e-002, 3.62738944e-003, -6.88488921e-003,
          -7.59619637e-004, 1.91584311e-003, -8.71001277e-004,
          5.57461847e-003, 9.77940764e-003, 4.84977895e-003,
          -1.72138605e-002, -1.34829730e-002, -7.92030478e-004,
          1.08367286e-003, 3.54079832e-003, 2.83994665e-003,
          4.23811469e-003, 6.40002763e-005, -1.05724689e-002,
          -1.66488737e-002, -1.40965395e-002, 7.37100956e-004,
          2.99776089e-003, 1.86325831e-003, 6.06055139e-003,
          7.67558347e-003, 3.57224862e-003, -2.98700738e-003,
          -8.50336626e-003, -2.35251922e-004, -4.85900929e-003,
          -2.53343582e-003, 2.19601730e-004, -1.30512286e-003,
          1.27924330e-004, 3.89617565e-003, 3.08064889e-004,
          6.78074639e-003, -1.28143402e-002, -3.72734456e-003,
          -9.59429075e-004, -1.58075909e-005, 3.53667140e-003,
          -1.32814760e-003, -1.30645242e-002, 1.01929149e-002,
          -6.90355431e-003, 8.03234143e-005, 3.38592893e-003,
          2.15685833e-003, 8.64289119e-004, 2.16083298e-003,
          2.92045734e-004, -1.06692174e-002, -6.81795739e-003,
          8.77855346e-003, 7.84052722e-003, 1.92728266e-003,
          2.18060613e-003, 3.08503251e-004, -1.72200461e-003,
          -1.03363357e-002, -3.15802619e-002, -4.28432925e-003,
          1.36042340e-002, -5.73742436e-003, -7.87962228e-004,
          1.18178560e-003, -1.44618202e-003, 2.82738125e-003,
          -6.93642476e-004, -1.87294111e-002, -2.77902302e-003,
          1.76465288e-002, 1.02623098e-003, 2.47789826e-003,
          2.04839977e-003, -1.95457903e-003, -8.73594312e-004,
          -4.99030994e-003, -1.02577498e-002, -8.12643394e-003,
          2.29217000e-002, 6.47446048e-003, 3.37671046e-003,
          1.95086561e-003, -6.83524704e-004, -1.68318360e-003,
          -6.96741184e-003, -2.79024169e-002, -1.26383379e-002,
          1.56062813e-002, 1.03076771e-002, 6.84319157e-003,
          2.69574439e-003, 3.92524479e-003, -2.67550838e-003,
          -7.06265913e-003, -2.97112279e-002, -2.15826426e-002,
          1.28142638e-002, 3.34346027e-004, 3.29821068e-003,
          1.84777030e-003, -2.89824005e-004, 7.57003785e-004,
          -1.09911780e-003, -1.21724058e-003, -9.08464938e-003,
          1.35524496e-002, -4.43480024e-003, -1.00658520e-003,
          1.34924892e-003, 1.07716781e-003, -1.86997070e-003,
          -3.69251170e-003, -1.61194541e-002, -9.67177842e-003,
          2.29060892e-002, 9.96473618e-003, 3.63295176e-003,
          2.02704035e-003, 7.00667640e-003, 1.03389483e-003,
          -1.31100812e-003, -2.32533384e-002, -1.99859273e-002,
          2.84496937e-002, 4.21536528e-003, 1.53118384e-003,
          -1.47495419e-003, 1.82243891e-003, -1.09698318e-004,
          -1.94113771e-003, -1.33149987e-002, -1.49719948e-002,
          2.34036893e-002, 3.95579264e-003, -2.96029332e-003,
          1.01357768e-003, 3.20749520e-003, -6.59654732e-004,
          6.57329569e-004, -1.74033660e-002, -8.78997613e-003,
          2.61980258e-002, -4.52848291e-003, -5.22791687e-003,
          -1.24810787e-003, -2.30101496e-003, -2.31908489e-004,
          6.88233227e-003, -1.64441206e-002, -1.47533054e-002,
          2.09722240e-002, 3.29948147e-003, 4.05684765e-003,
          -6.62920123e-004, -8.39068845e-004, -2.07655691e-003,
          -4.99508111e-003, -9.37817991e-003, -7.76046561e-003,
          2.96803601e-002, 1.05257276e-002, 5.06562088e-003,
          1.62448594e-003, 5.53952530e-004, -2.38344190e-003,
          -6.35400321e-003, -1.29673416e-002, -7.88506027e-003,
          1.16589898e-002, -2.37612939e-003, 1.35264453e-003,
          1.07052423e-004, -1.16178265e-003, -1.29902456e-003,
          7.78868853e-004, -1.37472199e-002, -2.11681817e-002,
          1.31806340e-002, 1.11617893e-002, 8.94714985e-003,
          2.42261123e-003, 4.19010175e-003, -1.30665477e-003,
          -5.62653877e-003, -1.79559626e-002, -2.13513263e-002 ]
   decision_functions:
      -
         sv_count: 1
         rho: -7.7257732097232423e-001
         alpha: [ 1. ]
         index: [ 0 ]
